[UNK] 0.0028023724 0.06672003 0.041182112 -0.00034018772 0.04540986 0.13215236 0.004561955 0.039504945 0.12480214 -0.02775864 0.050193 -0.19038193 -0.04517735 0.07841194 0.08379428 -0.02369561
the 0.067655064 0.053844072 0.07583029 -0.047708277 0.10929142 0.15358527 0.07802521 0.08644433 0.09005197 0.05297849 0.060438782 -0.21275845 -0.0056507248 0.17730668 0.013259222 -0.078891575
and -0.06792892 -0.11558433 0.18105146 -0.1398041 0.21989869 0.02035395 0.14381592 0.1880303 -0.04367797 0.12438986 -0.091886565 -0.030964034 0.07783007 0.1909522 -0.10331992 -0.13148591
a 0.031148065 0.014520118 0.044705354 -0.019132413 0.11705411 0.1237688 0.07552217 0.060687855 0.09345628 -0.0014915233 0.014188798 -0.1398004 0.009815194 0.1447353 0.012157788 -0.012817523
of -0.024551015 0.007597157 0.1334009 -0.06682345 0.07362575 0.105419375 0.052160542 0.11907181 0.111567974 0.061704718 -0.037797533 -0.15021369 -0.036851835 0.10777504 -0.028445428 -0.034340955
to 0.13142535 0.0484669 -0.057638448 0.052798513 -0.033838674 0.11348096 0.007940137 0.006430459 0.09689741 -0.07974305 0.08574055 -0.19397533 -0.032129288 0.08631448 0.06529226 0.02800345
is -0.073677525 -0.045249086 0.18037674 -0.06147969 0.1531288 0.09632478 0.12519976 0.119061254 -0.002033873 0.072716266 -0.09369767 -0.09571892 0.056553215 0.17033963 -0.052678008 -0.12110043
in 0.00879012 -0.060715925 0.0803531 -0.09791036 0.118699715 0.11450339 0.11651279 0.11022259 0.046145797 0.057535093 -0.01257951 -0.065925926 0.044269074 0.16588043 -0.06816924 -0.13759288
it -0.088059515 -0.08618679 0.14806466 -0.12163101 0.21412364 -0.020515751 0.20487225 0.12337228 -0.020475332 0.17781183 -0.13780105 -0.025626745 0.14723468 0.25605303 -0.19633345 -0.1200584
i -0.0174202 -0.047002733 0.06510281 -0.05966876 0.0879524 0.026373671 0.05165249 0.10394281 -0.0037668252 0.07869813 -0.06436814 -0.03477132 0.019001441 0.11043742 -0.06297247 -0.0654513
this 0.11398076 0.059202746 -0.07221529 0.04618117 -0.02138005 0.085869305 -0.040412206 -0.048121795 0.17279665 -0.07507225 0.06312296 -0.21261322 -0.07748964 0.026195949 0.10474576 0.022557657
that -0.00035718337 0.0052288463 -0.011975949 -0.008657129 -0.020341374 0.08071415 0.050360486 0.020173213 0.10763302 0.04322705 0.05546695 -0.10299309 -0.008454699 0.12009362 -0.010939614 -0.029386936
was 0.15923448 0.08097404 -0.04359425 0.07018249 -0.09789727 0.17147918 -0.10921624 -0.054287273 0.11227568 -0.13496512 0.14385039 -0.12454246 -0.1088472 -0.05462932 0.11737309 0.06071343
as -0.0033151414 -0.09594971 0.14542086 -0.12735263 0.08981952 0.031011244 0.12973863 0.13941804 0.03498719 0.111549705 -0.08740388 -0.020888621 0.0025052584 0.1795683 -0.05768958 -0.09669665
for 0.032171044 0.041846022 0.019318247 -0.005185673 0.05701053 0.04815093 0.06877946 0.0845151 0.106898434 -0.0121275475 0.012192202 -0.1145198 -0.046675388 0.12470183 0.00920888 -0.01913078
with 0.066831335 0.08381239 0.06392231 0.0006551863 0.040682536 0.105858825 0.06835371 0.0012655823 0.14529839 -0.025270704 0.03079933 -0.15144444 -0.057397258 0.1336086 0.041681595 -0.04678021
movie 0.09915953 0.068484776 -0.026636869 0.012919766 -0.045931503 0.10630175 -0.06422496 -0.06011812 0.0777825 -0.04564235 0.10854793 -0.078377284 -0.020799344 0.0005700869 0.090978384 0.03593319
but 0.116373464 0.05644439 0.009190905 0.03965618 0.034956012 0.07388495 -0.0033215415 0.006249732 0.11215327 -0.054308232 0.08395732 -0.16891211 -0.04953798 0.017776763 -0.0010107365 0.028352965
film -0.057640105 -0.017848527 0.11396554 -0.08461193 0.06947103 0.11772287 0.09750369 0.13825189 0.029312575 0.08642944 0.012435167 -0.0913566 0.04866776 0.119750015 -0.040478114 -0.09602751
on 0.0028433795 0.035433963 0.03039791 -0.04074277 0.09241623 0.09421774 0.120932825 0.044741046 0.057347495 0.02819254 -0.027455442 -0.13114886 0.014437501 0.13160565 -0.02045424 -0.0616868
not 0.16540515 0.13117829 -0.1309698 0.15849291 -0.09009851 0.17603418 -0.09823769 -0.1119866 0.17336267 -0.15255542 0.11995976 -0.21845235 -0.104541935 -0.1113311 0.09209355 0.1319378
you -0.15880583 -0.11822055 0.19291568 -0.24815297 0.23123455 -0.18119888 0.15816414 0.24531583 -0.15124786 0.16756712 -0.19145007 0.1649243 0.18562245 0.22005124 -0.2365108 -0.2454188
are 0.015087011 0.020382619 -0.026651563 0.024903594 -0.02805035 0.07783944 -0.010253058 -0.025732793 0.13968533 -0.038503364 0.086401835 -0.1106828 -0.0370645 0.0384376 -0.008128412 1.1635479e-05
his -0.0822081 -0.069978155 0.09464004 -0.10251683 0.15449855 0.053728964 0.10054841 0.105450936 -0.022511184 0.087756224 -0.032880746 -0.01653819 0.07377027 0.1525568 0.0045994204 -0.054574657
have 0.10633726 0.14722924 -0.066586785 0.045987703 -0.034451373 0.107310794 -0.09328267 -0.10813433 0.11179273 -0.06243082 0.084379435 -0.15721002 -0.090282746 -0.06568627 0.06460787 0.039059047
be 0.17414719 0.12983352 -0.14307706 0.1248216 -0.13682713 0.14848477 -0.077073075 -0.12871024 0.20204052 -0.12814939 0.16285534 -0.21472038 -0.124436714 -0.07661113 0.086510904 0.07412761
he -0.015018937 -0.048646133 0.06470053 -0.08509126 0.103548974 0.034623884 0.15362878 0.055408083 -0.077493 0.071410626 -0.036045503 -0.023451587 0.013725206 0.110539615 -0.09882066 -0.07329939
one 0.004401588 -0.0047771954 0.067250095 -0.049064003 0.086081654 0.026215212 0.08583036 0.14765058 0.029269543 0.09407042 -0.10252663 -0.08239607 0.06891647 0.13314144 -0.07347973 -0.086417906
its -0.088635065 -0.123135425 0.1724031 -0.19148804 0.20402569 -0.09272239 0.19748706 0.1361222 -0.09427526 0.15532541 -0.12190073 0.046661235 0.11115131 0.20560238 -0.16166227 -0.12742847
all 0.026579557 0.016886346 0.09448806 6.0143066e-07 0.04266283 0.076971404 0.041851755 0.10514894 0.025384478 0.0059672 -0.0056597367 -0.10300055 -0.010954957 0.13498183 -0.022446709 -0.016263675
at 0.053659543 0.061590876 -0.031578396 0.058267064 -0.019399922 0.12464447 -0.03438133 -0.039549988 0.10140264 -0.048530046 0.07090367 -0.16210364 -0.09033465 0.02734098 0.083510466 0.038749825
by -0.023535464 0.049258962 0.020343224 7.548858e-05 0.095136195 0.12814368 0.0704284 0.019847395 0.07700877 0.071163826 0.038659457 -0.14946866 -0.0715337 0.06953702 0.006429227 -0.035301566
an 0.107993886 0.06728839 -0.009202313 0.08958999 0.007906737 0.13643351 0.024394324 0.0027579677 0.1494151 -0.032452244 0.088488445 -0.21912776 -0.11784224 -0.0053824894 0.06607429 0.023474505
they 0.092180096 0.13569659 -0.05022417 0.10958173 -0.05036438 0.09918077 -0.06930978 -0.05074678 0.16576357 -0.12509465 0.13621289 -0.09881272 -0.08389426 -0.098090634 0.08824073 0.06679586
from -0.04207226 -0.053482387 0.15198787 -0.1392041 0.15094045 -0.021878237 0.110744014 0.13904007 -0.024794482 0.07098834 -0.08759041 0.037205268 0.053299244 0.19502138 -0.10170297 -0.13262942
who -0.010484714 -0.0725917 0.102622874 -0.100382455 0.100872435 0.06932112 0.106804654 0.06289882 0.05838174 0.0491139 -0.03948816 -0.073902674 -0.013433979 0.13308477 -0.037204064 -0.061965875
so 0.14409576 0.06823914 -0.01840114 0.048408397 -0.03485538 0.11146168 -0.07559212 -0.09730576 0.08986192 -0.12860529 0.14386435 -0.13031428 -0.090894476 0.012966883 0.09509606 0.04481356
like 0.13311093 0.054220963 -0.0412667 0.07505279 -0.08165907 0.07398629 -0.01786165 -0.052729473 0.0858449 -0.086480126 0.07080693 -0.10284986 -0.052260317 -0.030079113 0.08043519 0.06333478
her -0.031505667 -0.018724447 0.08553128 -0.06731543 0.084139526 0.061769437 0.07295455 0.020529611 0.040094774 0.04850116 -0.058315326 -0.06326924 0.030594608 0.05284609 -0.0018831454 -0.04852099
just 0.12929143 0.16291422 -0.15681887 0.20362969 -0.18888031 0.20046051 -0.108453825 -0.17094725 0.19136812 -0.1289534 0.13104548 -0.22090484 -0.18317853 -0.13970432 0.20899172 0.19612941
or 0.11162008 0.14089991 -0.10572015 0.094914235 -0.109538496 0.1429244 -0.11247184 -0.08536941 0.076335676 -0.124591924 0.062606275 -0.17331786 -0.052207712 -0.06992349 0.07140843 0.12745151
about 0.06614571 0.059393026 -0.012448025 0.053782757 0.03809135 0.08737402 0.053448316 0.001231562 0.06937086 0.008343949 0.082866475 -0.12265222 -0.06472966 0.073204204 -0.0022050692 -0.015630567
has -0.10751512 -0.061567783 0.16682051 -0.09143405 0.14113481 0.052229464 0.14699613 0.14201103 -0.01563732 0.15309349 -0.10396031 0.015428774 0.036977384 0.20997505 -0.043567475 -0.07605958
out 0.08969976 0.120183334 -0.065583505 0.13818192 -0.095849946 0.12306793 -0.0807268 -0.11239167 0.09657907 -0.11579975 0.12750506 -0.104595065 -0.11167992 -0.087796025 0.15163724 0.123862974
if 0.07792564 0.112853184 -0.099004626 0.049402777 -0.034991816 0.06603801 -0.09009424 -0.104562365 0.10868342 -0.1309786 0.117735215 -0.11998198 -0.120807074 -0.07268811 0.09632875 0.05474179
some 0.0381377 0.06886284 -0.022377087 0.046834 -0.028302494 0.03376414 0.030190472 -0.0010575479 0.09053487 0.0013603552 0.08947412 -0.118153356 -0.080035955 0.018331517 0.0326415 0.051517166
there 0.13067576 0.1461158 -0.06186844 0.103193454 -0.08772768 0.07925671 -0.038911033 -0.03315299 0.1561559 -0.06225557 0.06529896 -0.1684594 -0.14698449 -0.111678675 0.074588716 0.049701035
what -0.016860418 -0.062260874 0.04342258 -0.05302315 0.06062797 -0.040740244 0.099403925 0.06404242 -0.0134872375 0.021533588 0.0036665534 -0.026060635 0.08451423 0.086751804 -0.017392375 -0.05524794
good 0.0021256371 -0.028359922 0.08383509 -0.08266499 0.040974166 -0.033840243 0.07133808 0.104403526 -0.019821778 0.042747837 -0.05635455 0.00076163956 0.08464361 0.08911446 -0.064253084 -0.06662758
more -0.13666274 -0.14852436 0.17944899 -0.20443678 0.16301244 -0.14120378 0.219117 0.1541474 -0.1022211 0.14706105 -0.17568754 0.059315592 0.15631665 0.20692047 -0.18117362 -0.20740303
when -0.08827942 -0.024528828 0.09212728 -0.04589251 0.09422444 -0.006556226 0.05139358 0.105896406 -0.047522027 0.08689357 -0.047727898 0.03822476 0.053540718 0.12964077 -0.08034449 -0.10106029
very -0.20647213 -0.29504424 0.2521692 -0.27132085 0.23111041 -0.2665243 0.27041015 0.24391058 -0.27966467 0.32392767 -0.24300131 0.18710208 0.20782562 0.33268556 -0.30000424 -0.298134
even 0.23270783 0.2689936 -0.24474135 0.25249922 -0.22104327 0.2703465 -0.2228775 -0.19856164 0.3118571 -0.3006844 0.2689583 -0.28023112 -0.282473 -0.2641987 0.2992674 0.2396858
my -0.15941937 -0.1621979 0.14541724 -0.16497804 0.21217647 -0.061434235 0.18006547 0.16672166 -0.1486039 0.13426815 -0.18527715 0.02269969 0.12241108 0.16655314 -0.15495785 -0.14800933
she -0.020095427 0.04573823 0.011782923 0.023506992 0.075794995 0.0436648 0.07587283 0.051591147 0.06782336 0.028318737 -0.030871136 -0.0134513825 -0.0025199922 0.07477604 0.037063893 -0.031422384
up 0.18034337 0.13719575 -0.08568578 0.09666813 -0.110302426 0.1922795 -0.16413528 -0.11076934 0.21775185 -0.16680638 0.13569418 -0.15204169 -0.11907506 -0.12915878 0.17791726 0.097993344
no 0.30464205 0.27219954 -0.26423082 0.34583998 -0.32726544 0.3253014 -0.24490039 -0.24948421 0.34256116 -0.33721843 0.25115427 -0.32981858 -0.31392142 -0.29248527 0.3541636 0.2821782
time -0.05700336 -0.10779625 0.11447492 -0.16444495 0.14318503 -0.09338312 0.12538998 0.11919103 -0.115159675 0.16858466 -0.10380704 0.013977528 0.058668707 0.20977794 -0.09991379 -0.1379174
would 0.12877582 0.15624896 -0.13704146 0.12117038 -0.11128129 0.16973513 -0.12300079 -0.14825147 0.1944267 -0.15044612 0.15667905 -0.16070592 -0.17045203 -0.13669606 0.11961925 0.14748305
which 0.023562394 0.032066844 0.013181159 -0.012895739 -0.0019474616 0.077279575 0.03569091 0.045100715 0.03531575 -0.00011269157 -0.0039372765 -0.087129876 0.008195049 0.021334475 0.03456119 -0.04531449
only 0.21703696 0.19058584 -0.14521232 0.14154972 -0.16948873 0.22518127 -0.18395828 -0.19603965 0.252771 -0.15501355 0.21893787 -0.19264464 -0.21145728 -0.21135065 0.24316019 0.19198538
really -0.0027510775 -0.0011623669 0.023788989 0.015385596 0.016893636 0.011922751 -0.0012951563 0.004874814 0.0018435811 0.035421927 -0.013795857 -0.08989802 0.0570184 0.0933365 -0.050699174 -0.0044248225
story -0.10244607 -0.12080054 0.15929872 -0.15249345 0.11913767 -0.04358493 0.17416571 0.16844124 -0.085213155 0.12216178 -0.07591769 0.06374941 0.09082993 0.21383305 -0.15375718 -0.18366148
their -0.079496056 -0.085038744 0.14618924 -0.17781308 0.109873734 -0.064625725 0.17682204 0.18239437 -0.074610725 0.13400503 -0.1513244 0.07775167 0.09319961 0.22504912 -0.13999154 -0.18772979
were 0.087018475 0.17561056 -0.08457941 0.07625321 -0.10964783 0.15954952 -0.059147764 -0.119741574 0.119169936 -0.114214994 0.16318023 -0.15125123 -0.1344637 -0.05441078 0.091909975 0.13157524
had 0.12427477 0.120356224 -0.085990384 0.040332172 -0.04773448 0.06447876 -0.019367812 -0.051132508 0.08836232 -0.08767026 0.1382115 -0.12871815 -0.10100799 -0.074936785 0.040982667 0.04200629
see -0.13747253 -0.14323235 0.14356826 -0.16811334 0.1337003 -0.14384417 0.1685372 0.1554834 -0.10861803 0.12684819 -0.17926858 0.09816056 0.10963623 0.21590169 -0.17972474 -0.16442648
can -0.016589932 0.032291725 0.008901423 0.006708535 0.020728908 0.015394118 0.047663175 -0.015674662 0.058410566 -0.017190594 0.039790478 -0.059839394 -0.06475594 0.094453834 0.0023343954 -0.04623669
me -0.06609714 -0.11063943 0.13176528 -0.08360949 0.11545286 -0.08577814 0.14476341 0.15513618 -0.055716593 0.12496509 -0.06732146 0.009763646 0.06811426 0.16417727 -0.17121473 -0.092050955
than 0.057009354 0.03407693 -0.059842385 0.006752253 -0.0067345006 0.103435375 -0.041317523 -0.07409871 0.079424106 -0.05691788 0.11363125 -0.10706188 -0.078057535 0.015962176 0.068564 0.025835065
we 0.020207789 -0.03867542 0.029790916 -0.05457064 0.0601155 0.032864247 0.11910441 0.06358995 -0.028249055 0.07560651 1.953694e-05 -0.008353857 0.03405091 0.101720326 -0.06419718 -0.09387066
much 0.062156577 0.13804923 -0.034251846 0.050066188 -0.025475921 0.075058624 -0.050645925 -0.055114012 0.07496216 -0.035336148 0.06874984 -0.14034988 -0.05585453 -0.015605547 0.07816847 0.038455773
well -0.19042175 -0.1878421 0.21519016 -0.22912973 0.18530802 -0.16360089 0.25254068 0.18186192 -0.19973323 0.19612686 -0.1782618 0.15590543 0.1873257 0.20717163 -0.18896952 -0.17309698
been 0.14798923 0.171418 -0.14061859 0.22318247 -0.16011544 0.17889777 -0.2007217 -0.12441059 0.2119075 -0.2211392 0.18254656 -0.21779998 -0.1765475 -0.1422604 0.14513826 0.22066262
get -0.008571497 -0.013503547 -0.007313025 -0.046481434 0.04947351 0.030406293 0.051584497 -0.018314868 0.006825987 -0.032237 0.0024913044 -0.040874228 -0.01556431 0.07944354 -0.021099355 0.02451711
will -0.18165873 -0.25630364 0.22593655 -0.22306801 0.24620521 -0.17622405 0.20683181 0.25099525 -0.20858718 0.23098302 -0.26517457 0.21985847 0.26446187 0.24178627 -0.22510362 -0.23971933
also -0.23246428 -0.23085923 0.23965022 -0.26668692 0.25838095 -0.2198117 0.21298596 0.27190277 -0.21980245 0.19234593 -0.1973088 0.20931737 0.2335655 0.28332132 -0.1862608 -0.21580188
other -0.074924305 -0.12896365 0.17428558 -0.18461391 0.13911232 -0.11180382 0.17432696 0.18749219 -0.11779177 0.14955683 -0.16872449 0.048039064 0.13998146 0.21993566 -0.14599109 -0.14094533
people -0.02903904 -0.046636324 0.114227034 -0.0371434 0.05151688 0.008552179 0.115839645 0.050452698 0.029472385 0.06990192 -0.08407363 -0.038484596 0.05326495 0.17435208 -0.100138634 -0.043444432
bad 0.2871096 0.36119813 -0.34684736 0.38511452 -0.3829016 0.3401208 -0.3661242 -0.3550586 0.36658427 -0.33288708 0.2880204 -0.3193279 -0.38576603 -0.41857606 0.41701812 0.42274228
into 0.00096366624 -0.0014698044 -0.003078429 0.0041536065 0.008741432 0.07772307 -0.009069689 -0.05139308 0.059491716 0.0018977746 0.040072445 -0.09397971 -0.0037969456 -0.010064991 0.00814738 0.05067318
do 0.16705067 0.13132784 -0.20067228 0.1402826 -0.136996 0.21629769 -0.14333552 -0.15893342 0.14500904 -0.18226334 0.18018998 -0.2220583 -0.19224231 -0.18586156 0.17441154 0.1225971
first -0.005835205 0.02066641 0.090513326 0.0011351116 0.023609675 0.036814928 0.09773598 0.09076981 0.055651683 0.029330177 -0.03508117 -0.0110089155 0.012847203 0.08701878 0.004586718 -0.07205441
because 0.025469579 0.006112784 0.00894193 0.0032175703 0.023727447 0.04652604 -0.0027789727 -0.030055922 0.08989514 0.019711362 0.04538228 -0.040441126 -0.057349335 0.057361394 -0.021609329 0.039113756
him -0.079153776 -0.096647866 0.1204049 -0.12853824 0.10969004 -0.087701306 0.103060834 0.15433392 -0.12282482 0.1480482 -0.14622122 0.038496725 0.06927151 0.16560277 -0.07983325 -0.106324166
great -0.29684475 -0.31115782 0.3563645 -0.37145168 0.36298645 -0.3240524 0.33819634 0.36729914 -0.32968011 0.35620528 -0.30898035 0.3164634 0.41244286 0.4248271 -0.42470044 -0.38917914
how 0.051850367 0.019105319 0.020375846 -0.026113499 -0.02552388 0.07689893 -0.027031582 -0.029225035 0.095076144 -0.053388234 0.04352536 -0.100724205 -0.01032233 0.09642082 0.047847975 -0.026959188
most -0.18540257 -0.16025862 0.2046988 -0.15125507 0.22023618 -0.16516212 0.22794493 0.20346817 -0.14966913 0.24725595 -0.14951764 0.120482914 0.18997689 0.24421367 -0.17908414 -0.20345527
dont 0.13821657 0.14725052 -0.067464255 0.14087169 -0.046821266 0.12053714 -0.113674246 -0.055404466 0.15837486 -0.09356337 0.0763598 -0.1312204 -0.14604738 -0.046035584 0.12873343 0.08047692
made 0.105428964 0.046273116 -0.060486168 0.107177965 -0.060093798 0.12356528 -0.024735183 -0.050599527 0.10378496 -0.08801741 0.037988167 -0.16401829 -0.114662364 0.003716153 0.057386216 0.10185703
movies 0.014751749 0.0068782447 0.045567393 -0.01065496 0.004863286 0.009870719 0.037912834 0.07760649 0.040828176 0.060412083 0.018327942 -0.043797165 0.01805164 0.06134032 -0.009682149 -0.07447696
then 0.16481794 0.2011411 -0.16409513 0.19655645 -0.14549 0.15977214 -0.15557747 -0.16840434 0.19408461 -0.12915581 0.15177163 -0.17518038 -0.18880267 -0.13368723 0.19660553 0.13636851
them 0.012202644 0.0711115 -0.00647104 -0.022468206 -0.026259974 0.10580848 0.017493661 -0.06358591 0.058913764 0.003198032 0.012480299 -0.0993327 -0.04082453 0.050491974 0.06816201 0.008819525
films -0.038870253 -0.065886006 0.13437615 -0.09530468 0.07103656 0.011863072 0.1197752 0.13108546 -0.040691312 0.12814774 -0.049338732 0.030252695 0.085028954 0.16380008 -0.04704154 -0.10120331
way -0.027471615 0.00095234753 0.09598497 -0.09071082 0.11131105 -0.01987692 0.1467486 0.05807258 -0.03361441 0.122966014 -0.086644925 -0.021565786 0.06329188 0.1859668 -0.11618338 -0.11288858
make 0.22555801 0.24196336 -0.25847584 0.23944363 -0.24435411 0.2230613 -0.21920589 -0.20850088 0.27907035 -0.2786831 0.27211043 -0.22371994 -0.24975619 -0.21010323 0.2776121 0.26359513
any 0.22773097 0.17522658 -0.25752395 0.17156027 -0.18058126 0.27116743 -0.18044965 -0.21848343 0.22693773 -0.1934667 0.21179652 -0.19135864 -0.23057613 -0.24977218 0.20945595 0.20097984
could 0.23416504 0.23605934 -0.21098538 0.21022183 -0.27317888 0.30351916 -0.22612597 -0.2726048 0.29166818 -0.20952097 0.23677562 -0.20304523 -0.2562234 -0.26368612 0.25331172 0.26154
too 0.17914598 0.15665543 -0.15847507 0.19981453 -0.11784678 0.21052487 -0.09789936 -0.16688359 0.15498723 -0.20787741 0.13069163 -0.22504994 -0.19193748 -0.15198253 0.17069156 0.108018436
characters 0.09086227 0.12304013 -0.042075172 0.022748519 -0.017511148 0.13373949 0.014585375 -0.06499577 0.124429435 -0.043145936 0.040480956 -0.12969476 -0.043277167 0.052052032 0.10521176 0.005952954
after 0.06682227 0.042131472 -0.0119157415 0.04885845 0.0028226953 0.040805515 -0.06213939 -0.037422378 0.05983462 -0.01043376 0.083685234 -0.07071267 -0.070058994 0.014865649 0.04626535 0.061328065
think -0.18664646 -0.2040867 0.2209984 -0.20268479 0.15132342 -0.14299202 0.16727054 0.23978293 -0.11476508 0.21062578 -0.14714554 0.1593773 0.1389454 0.2833934 -0.24786747 -0.21807629
watch -0.080136634 -0.04807158 0.11840121 -0.104187466 0.10293944 -0.04072444 0.14697684 0.086628914 -0.052824754 0.13339 -0.051979125 0.017260265 0.101343274 0.14870578 -0.14955837 -0.0752988
two -0.08781018 -0.07786663 0.114977516 -0.09652296 0.14299226 0.014459541 0.08268119 0.12440877 -0.040039986 0.06978514 -0.032866918 0.029610945 0.025261743 0.13167718 -0.0827959 -0.0793812
seen -0.070482016 -0.089597374 0.14309171 -0.13403617 0.14755408 -0.07613318 0.13833803 0.12747316 -0.024691688 0.06310122 -0.044544835 0.03917168 0.08826055 0.18617803 -0.14343455 -0.14574514
character 0.11010422 0.07045095 -0.002869666 0.093160175 -0.051457733 0.075808525 -0.028942127 -0.060999226 0.0863493 -0.04412973 0.05990881 -0.10645472 -0.029271504 -0.01477344 0.09855029 0.007553737
many -0.12262839 -0.09170826 0.19334611 -0.12891598 0.20816457 -0.10670553 0.21090783 0.1946915 -0.16116136 0.21327251 -0.15833989 0.06796408 0.13607155 0.18915696 -0.11023144 -0.17364009
being -0.008128974 0.060594942 0.0043399017 0.039111506 0.013234025 -0.00941101 0.03621739 0.019639162 0.038984697 -0.012128512 -0.041017693 -0.089780174 0.03135912 0.0059393006 -0.027726421 0.019174347
acting 0.25979665 0.23524773 -0.2617803 0.23776641 -0.29832965 0.33324382 -0.22823763 -0.2916803 0.26391304 -0.2544975 0.2734837 -0.299947 -0.26177433 -0.33477056 0.3093088 0.2864218
never -0.020262478 0.04604409 0.07107649 0.018552983 0.07654638 -0.01725695 0.03727137 0.026244784 -0.0058216443 -0.0044632717 -0.026548786 -0.07806441 -0.016831173 0.09070292 -0.04765278 -0.00051851093
plot 0.22852927 0.28299353 -0.31067103 0.2627152 -0.30598405 0.29452077 -0.20541215 -0.26723167 0.29969358 -0.28315708 0.29753742 -0.2913209 -0.26323125 -0.2351776 0.26543432 0.26204535
little -0.014514611 -0.06376292 0.09693704 -0.08615358 0.102606215 -0.018759137 0.09426886 0.060435083 -0.06781529 0.065899834 -0.087859824 0.02313002 0.11510536 0.10546528 -0.058130797 -0.13598551
best -0.29163483 -0.3105821 0.36807382 -0.30759582 0.36794966 -0.3307727 0.28539902 0.29929587 -0.298293 0.3232115 -0.28703535 0.31749794 0.37402487 0.36366397 -0.36420444 -0.35472634
where 0.015955783 0.07365027 -0.034405272 0.06020139 -0.040875945 0.03650045 0.021012273 0.02217164 0.10615434 0.008175962 0.07316056 -0.040890098 -0.008703199 0.04103402 0.002259412 0.028338604
love -0.23163664 -0.31879067 0.24974339 -0.26267812 0.33307123 -0.31749034 0.26534298 0.2864063 -0.25568143 0.33509672 -0.23428723 0.28051376 0.31773594 0.27791488 -0.33238572 -0.29523814
life -0.18135676 -0.20609975 0.27405465 -0.17985454 0.20614277 -0.17383811 0.23563436 0.24557912 -0.22618528 0.24362978 -0.1793362 0.2183465 0.26649484 0.29763743 -0.24416481 -0.19554654
did 0.10431131 0.045179773 -0.026120195 0.052907627 -0.07591944 0.031460833 -0.08195531 -0.052687082 0.10683837 -0.090128124 0.032210983 -0.11069102 -0.024263972 -0.05007703 0.0845283 0.006711966
know 0.002935646 0.074799 0.02528092 -0.011319086 -0.04317801 0.025564969 -0.03561662 0.015778188 0.086387806 -0.0060315747 0.049188208 -0.06777737 -0.053174004 -0.032512236 -0.02917762 -0.030151242
show -0.100295976 -0.13718194 0.13839334 -0.16199236 0.11267275 -0.018839648 0.16056074 0.11367557 -0.119522095 0.11974991 -0.08286979 0.10628139 0.08836862 0.12994283 -0.06931072 -0.08888607
does 0.08731566 0.09172161 -0.026753498 -0.0010446049 -0.024273498 0.038798682 0.03414301 -0.00030993295 0.037619136 0.016890988 -0.0043350845 -0.12468189 -0.037625317 0.0023633887 0.017473785 0.031014433
ever 0.12303417 0.13571659 -0.1280024 0.14159524 -0.15016915 0.16322544 -0.11498539 -0.16372845 0.2295731 -0.17654501 0.14890832 -0.13982604 -0.19538857 -0.09652226 0.13616276 0.07620996
better 0.15619193 0.14861679 -0.10540829 0.13212411 -0.06942906 0.09904206 -0.087469734 -0.07659399 0.1901693 -0.0920861 0.17262042 -0.11798569 -0.16462064 -0.058796287 0.14198725 0.12550011
your 0.06884467 0.111162744 0.0043690186 0.013992156 -0.0497681 0.09545005 -0.008038081 0.007293131 0.10376526 -0.016218005 0.027328335 -0.085252665 -0.03657336 -0.003028929 -0.0009616428 -0.0076442854
end -0.070839815 -0.057150785 0.07627419 -0.0520715 0.0977374 -0.013677206 0.103090405 0.059022754 -0.010238677 0.04774683 -0.012793241 0.034269307 0.033371896 0.11287634 -0.07643044 -0.12921797
still -0.2670036 -0.21916525 0.27125204 -0.311526 0.22044745 -0.28769696 0.23093708 0.21585365 -0.2584861 0.23594408 -0.23132545 0.18731003 0.22995439 0.34382656 -0.24168916 -0.23251969
over 0.05586637 0.05775805 0.008011187 -0.042375393 0.03732454 0.044142265 0.005189408 0.018017413 0.030667506 -0.00559434 0.044464126 -0.041151505 -0.027180394 0.062232777 -0.03946783 -0.03201153
off 0.20944141 0.19554849 -0.21458481 0.25404298 -0.24032071 0.23287334 -0.20861383 -0.17929971 0.266195 -0.2422879 0.22724915 -0.23208077 -0.17554681 -0.23541825 0.21456009 0.20142047
here 0.12759238 0.06956262 -0.06620949 0.065166414 -0.08012059 0.1269486 -0.027436292 -0.07542539 0.16086783 -0.066575065 0.13773195 -0.15146776 -0.123609155 -0.09848037 0.05599217 0.063191086
these 0.083480746 0.05736359 -0.07124919 0.07124212 -0.059010223 0.04529856 -0.028934782 -0.023667108 0.12858309 -0.07657171 0.08955621 -0.10083553 -0.08691414 -0.05119826 0.0889394 0.045049652
man -0.033244584 -0.017679304 0.120105445 -0.10216266 0.06723402 0.04109144 0.10379997 0.089075506 -0.017442329 0.12718318 -0.08708169 -0.00047433493 0.056075104 0.15935263 -0.05845732 -0.1115011
say 0.086583406 -0.005506413 0.032851107 0.049413934 -0.017814683 0.043311495 0.036088113 -0.05502355 0.055693734 -0.023686046 0.0033026687 -0.092899755 0.0010041868 0.023193834 0.0356264 0.032894675
while -0.01318266 -0.012453718 0.05984617 -0.08738229 0.047264837 0.006460324 0.052392103 0.08759222 0.021030968 0.062263355 -0.03299698 0.0068602297 0.011542012 0.072864175 -0.0412792 -0.025039384
why 0.2406945 0.25568837 -0.17876667 0.21065663 -0.16970216 0.23196267 -0.15598615 -0.19845505 0.25572863 -0.2715537 0.2501694 -0.22341032 -0.20576836 -0.21840231 0.28622738 0.22585647
scene 0.13216633 0.13327676 -0.06402463 0.13724978 -0.08911878 0.11209911 -0.14583904 -0.06517577 0.17578791 -0.11163836 0.14978832 -0.10433263 -0.12666348 -0.10208814 0.16712356 0.13273941
such 0.099866666 0.12774898 -0.10351649 0.060767524 -0.026889028 0.1263206 -0.05828792 -0.026037125 0.16297287 -0.05478963 0.122063756 -0.15093607 -0.08444007 -0.0048166257 0.1425139 0.05730257
scenes 0.11440331 0.1384288 -0.14612482 0.06283003 -0.06336257 0.0883547 -0.10026764 -0.057235073 0.096378066 -0.08813979 0.14158262 -0.16901809 -0.1601932 -0.08549202 0.09158918 0.12423281
go -0.00069419894 0.01858837 -0.022427848 0.020594262 -0.038061034 0.07065871 -0.047950152 -0.035720177 0.05098917 0.017310197 -0.026876768 -0.081834786 -0.033205826 0.014493066 -0.0075585656 0.019127283
something 0.14313714 0.15166366 -0.13732041 0.17436102 -0.12492726 0.13350853 -0.18537271 -0.17244744 0.14959316 -0.14771195 0.18546772 -0.15623128 -0.12625812 -0.11077585 0.20326675 0.117573015
should 0.15856178 0.24387023 -0.20891069 0.24334899 -0.20366038 0.17882162 -0.22259541 -0.24273798 0.17930475 -0.17613934 0.15707457 -0.24036086 -0.24937043 -0.23048452 0.251572 0.24189837
through 0.12725355 0.20494753 -0.124833375 0.16562322 -0.17598905 0.15086584 -0.1168546 -0.13095872 0.1477255 -0.1746808 0.104012914 -0.2418942 -0.13762683 -0.06949895 0.10941354 0.17711203
im 0.12428339 0.16653901 -0.14812146 0.13898325 -0.09974373 0.14479423 -0.14336267 -0.076907225 0.17002183 -0.14219473 0.102483205 -0.18793838 -0.14300737 -0.16080411 0.13935708 0.16786262
back -0.07511346 -0.062027212 0.10398528 -0.020546446 0.07094431 -0.0456846 0.1042956 0.08071921 -0.007753458 0.098677956 -0.074965395 -0.032984335 0.012569065 0.06321223 -0.027647402 -0.07901321
those -0.063510336 -0.041306186 0.11600553 -0.06986648 0.06417268 -0.08078931 0.082195535 0.11943448 -0.0328319 0.14753294 -0.10068641 0.002150964 0.12901883 0.13917743 -0.067814246 -0.15112758
doesnt 0.107035466 0.09604966 -0.08965367 0.13941072 -0.104041204 0.10145315 -0.067575805 -0.1600526 0.16247486 -0.12753534 0.09253041 -0.15470795 -0.1522984 -0.1420137 0.13768154 0.10707703
real -0.027078385 -0.026597079 -0.0114902565 -0.012889139 0.013711445 0.04002606 -0.0072266078 0.07199832 0.024154244 0.035752136 -0.0010583984 -0.053371616 0.009327481 0.07614256 -0.043172654 -0.012223385
watching 0.14361438 0.22446075 -0.2155257 0.16945183 -0.15167126 0.25138205 -0.202367 -0.22152974 0.21331605 -0.221435 0.18950063 -0.21438096 -0.23062468 -0.17786668 0.24158898 0.2229253
though -0.20564556 -0.15996553 0.26875633 -0.2235075 0.18031126 -0.17170948 0.2473986 0.19739194 -0.21451607 0.17869397 -0.2307866 0.17628983 0.16732381 0.21143626 -0.2224102 -0.24862756
now -0.036023863 -0.053404126 0.05648527 -0.093572885 0.09262282 -0.0032340197 0.13313007 0.13117108 -0.085814 0.09709935 -0.12135151 0.024637815 0.034936167 0.0748086 -0.051861603 -0.036734633
years -0.18238637 -0.21243723 0.22410499 -0.22502609 0.20452167 -0.18767017 0.21085618 0.25972873 -0.213079 0.18731152 -0.17240709 0.21519923 0.17579679 0.2939343 -0.19343047 -0.19721122
thing 0.2107106 0.29112107 -0.26048258 0.20891382 -0.26137018 0.25187132 -0.27148348 -0.28367284 0.28130147 -0.22392155 0.24639215 -0.26133245 -0.30815047 -0.30873117 0.27367207 0.28856406
actors 0.15709127 0.23849307 -0.171038 0.20035715 -0.17363483 0.24741162 -0.14982812 -0.123591684 0.17871858 -0.15730706 0.17769553 -0.1691703 -0.21513277 -0.12924698 0.13957788 0.17672886
didnt 0.12921107 0.08270006 -0.09706093 0.12753306 -0.06456298 0.14677139 -0.120576404 -0.113239914 0.16992454 -0.06458382 0.078566894 -0.15890487 -0.0951695 -0.12822503 0.12414165 0.10018612
before -0.060937665 -0.026635136 0.09043051 -0.08698638 0.13125658 -0.038447317 0.08832316 0.05208507 -0.09959209 0.03336078 -0.026541965 0.028750857 0.05522772 0.15858686 -0.06867553 -0.064459436
another 0.18763286 0.14964089 -0.16218895 0.115811005 -0.15480892 0.16527104 -0.12550293 -0.146888 0.18826042 -0.21346097 0.20825154 -0.17235403 -0.17646055 -0.18603656 0.21490628 0.13586938
nothing 0.29550126 0.34392956 -0.36926648 0.3037397 -0.36497056 0.36787954 -0.30713132 -0.26874557 0.3418542 -0.37867305 0.26392376 -0.35170802 -0.36825863 -0.3636397 0.3995298 0.36360535
new -0.019882806 -0.067501634 0.08653157 -0.10130889 0.08625974 -0.03452803 0.1342297 0.04863378 -0.08309849 0.071192704 -0.07321627 0.0027217926 0.045607615 0.1658983 -0.026747828 -0.079878226
actually 0.094237275 0.06794984 -0.102756485 0.0685021 -0.03365083 0.07901699 -0.072221234 -0.023496121 0.11835808 -0.04639581 0.06867486 -0.08991771 -0.077600285 -0.045459073 0.06934516 0.057351332
makes -0.024357118 -0.06448658 0.07058109 -0.12878664 0.13062523 -0.01052518 0.15623046 0.09779667 0.012748236 0.07274579 -0.07644841 -0.0019873185 0.054786332 0.11134883 -0.0748583 -0.09658007
work -0.030872202 -0.07754987 0.10536076 -0.045400303 0.06511818 -0.03947153 0.033289786 0.030238993 -0.0049822666 0.024357822 -0.09748442 -0.03367193 0.053135775 0.09654616 -0.09245266 -0.10652409
funny -0.020279739 0.016455032 0.0053674597 -0.07230311 0.012542396 0.05412614 0.00047062172 0.010269677 0.06333106 -0.0032752627 0.038582977 -0.049068708 0.022327524 0.0782038 -0.0050022323 -0.05266235
old 0.02949865 -0.020122249 0.048705567 -0.0022711144 0.032138344 0.08680064 0.075498305 0.04701845 0.04822613 -0.007317517 -0.022481361 -0.08220794 0.027492428 0.06738215 -0.0052165342 -0.0017452422
look 0.10779175 0.061455287 -0.10243858 0.055306364 -0.08421218 0.07415114 -0.10486278 -0.04053665 0.06264886 -0.03823621 0.03821926 -0.16019066 -0.09889546 -0.04013225 0.03756932 0.06766357
find -0.13792315 -0.078577936 0.12134262 -0.12700048 0.14981705 -0.14110282 0.12251409 0.1553008 -0.089363016 0.1415599 -0.0953849 0.13518663 0.12778111 0.15301819 -0.13056406 -0.13173719
same 0.07470537 0.15720403 -0.06479443 0.09859223 -0.069192305 0.16540922 -0.092759974 -0.06376611 0.18231675 -0.07243861 0.09766709 -0.15720016 -0.16593528 -0.08034463 0.0774013 0.13370845
every 0.08126365 0.07095084 -0.046168834 0.0026542353 -0.06446525 0.085254185 0.035676375 -0.03446788 0.11075962 -0.02848627 0.014595398 -0.10723591 -0.08878462 0.019069558 0.02479881 0.04160283
few 0.015366059 -0.0384771 0.018963896 -0.047941227 0.06340109 0.049342286 0.07303453 -0.024427863 -0.029066913 0.053547416 -0.004526713 -0.03653201 0.027704507 0.033237237 -0.0077524893 0.012912713
us -0.2041839 -0.2256836 0.25439167 -0.17587689 0.26241392 -0.18090428 0.19707628 0.1808313 -0.18500127 0.2442822 -0.21425973 0.11988111 0.2369974 0.19970228 -0.23228464 -0.18225783
going 0.07847002 0.11115322 -0.10889009 0.108698845 -0.04183565 0.0882136 -0.07178999 -0.022404132 0.09283897 -0.09814602 0.08481479 -0.09145365 -0.028993012 -0.09311504 0.024028946 0.09262753
again -0.06928212 -0.141592 0.13315304 -0.14821991 0.14803132 -0.109023936 0.17212604 0.1052078 -0.07799506 0.18274876 -0.10465589 0.052543756 0.14363748 0.1995081 -0.13886599 -0.1920762
part 0.017399266 0.0191643 0.038760863 -0.036095407 0.008760095 0.01337439 0.04379756 0.072056524 -0.032922648 0.081395276 -0.058718204 -0.0584129 0.051912166 0.11445954 -0.021738 -0.022853943
lot -0.15632412 -0.17673165 0.21809334 -0.23929107 0.2085652 -0.16896366 0.15992154 0.23218538 -0.21924779 0.17455629 -0.14214815 0.14394356 0.2169627 0.21233329 -0.1981173 -0.19099355
director 0.22341712 0.22288245 -0.18690513 0.2047026 -0.17815873 0.21123885 -0.12858601 -0.1463173 0.26696262 -0.21240929 0.21164645 -0.21934631 -0.24833561 -0.20574573 0.18329732 0.17287879
cast -0.019012157 -0.016413735 0.07502689 -0.07108112 0.05238582 0.02137445 0.060768224 0.10004845 0.0034130225 0.04029098 -0.091936976 0.0020835318 0.011111879 0.09128137 -0.031378683 -0.059812002
cant 0.12820777 0.15418763 -0.15917078 0.13507248 -0.18723437 0.17991336 -0.13130064 -0.18191685 0.14604414 -0.19500035 0.1329546 -0.16332328 -0.20468456 -0.16199715 0.18650357 0.16234732
things -0.07792201 -0.02039002 0.06621237 -0.020149639 0.10945401 -0.052749284 0.11152207 0.030762037 -0.0009951073 0.10157843 -0.028077953 -0.005347002 0.056393597 0.13727382 -0.071561426 -0.053981617
quite -0.1214114 -0.14964117 0.19298232 -0.15143977 0.18341212 -0.12717244 0.16155788 0.14870527 -0.15586151 0.15561903 -0.17523566 0.18291007 0.1599237 0.22791834 -0.18797661 -0.17912944
thats 0.120219424 0.13143803 -0.10734881 0.16014029 -0.17952003 0.12411342 -0.14514783 -0.1048419 0.16642724 -0.14122425 0.18249775 -0.19289929 -0.14945619 -0.10538515 0.18707915 0.124083996
want -0.04003283 0.0010569849 -0.007725266 -0.02721117 0.027037814 -0.0571551 0.016197108 0.040229786 -0.021862345 0.004458104 -0.025453119 -0.057890397 0.05026487 0.047585268 0.0036317927 -0.041616473
pretty 0.18538924 0.16602217 -0.1655655 0.20039795 -0.18674453 0.18882503 -0.14180125 -0.20530139 0.1548885 -0.16536397 0.1886199 -0.1684823 -0.21465679 -0.1875188 0.20871338 0.17427038
seems 0.15322238 0.18068965 -0.16515481 0.187927 -0.15884931 0.26014253 -0.1686666 -0.20339209 0.24247909 -0.2537755 0.20266788 -0.18078694 -0.21098469 -0.16861056 0.23582238 0.2562832
young -0.13012932 -0.15918438 0.22894736 -0.14262447 0.22944455 -0.1482585 0.13504271 0.1338888 -0.14894666 0.21709506 -0.21028836 0.1574204 0.1921041 0.1944264 -0.14434724 -0.18655345
world -0.1807052 -0.19621558 0.25249615 -0.17748998 0.22408645 -0.17718415 0.24421585 0.26250035 -0.23274785 0.19484797 -0.20941521 0.21282317 0.19653954 0.25182375 -0.24596046 -0.25448975
around -0.051930808 -0.043562863 0.065270185 -0.03322943 0.018068828 0.025291096 0.077575475 0.031687498 -0.036859058 -0.010475671 -0.010409406 -0.039181493 0.010197877 0.08090956 0.0062750587 -0.034052737
got -0.06386226 -0.04696747 0.05904759 -0.08378499 0.08812264 -0.049532704 0.049170002 0.059471007 0.012159534 0.08783521 -0.068657 -0.019965928 0.07840833 0.06965808 -0.047068954 -0.07997882
down 0.21663067 0.17773883 -0.23176585 0.17555468 -0.21412994 0.17937928 -0.17867932 -0.18092139 0.19466758 -0.21489456 0.19259135 -0.20221548 -0.22471513 -0.15265155 0.2380457 0.19337009
fact 0.029913224 0.12644912 -0.085076 0.10739004 -0.080493726 0.08711146 -0.047883917 -0.07410981 0.119946584 -0.10812071 0.07242082 -0.08128858 -0.043869443 -0.04729105 0.092331015 0.032330196
enough 0.14946942 0.2033135 -0.1930127 0.1865742 -0.17091888 0.16623978 -0.17041413 -0.15424426 0.16281225 -0.20719612 0.19463414 -0.18943456 -0.1913385 -0.21565446 0.17585388 0.16407865
between -0.028809708 0.027358854 0.044222843 0.0030438588 0.07308967 0.021641186 0.084710605 0.027497888 -0.0073440876 0.060993098 0.0017740864 -0.049791113 0.021503663 0.07559114 0.026363082 -0.025223978
however 0.21639669 0.16619544 -0.23363411 0.20212653 -0.24810906 0.22580409 -0.16629116 -0.23385629 0.18757015 -0.1773821 0.15800199 -0.2321307 -0.2509086 -0.18368739 0.22723037 0.1558892
take 0.04126397 0.10028821 -0.058395874 0.08170035 -0.070932426 0.07112666 -0.03935396 -0.023850806 0.08243586 -0.047639955 0.11240268 -0.06356646 -0.06668136 -0.0033822737 0.085869975 0.070249915
horror 0.16569558 0.16796736 -0.15439995 0.17706095 -0.18415345 0.16874178 -0.1647802 -0.11403591 0.13141589 -0.18910071 0.11389687 -0.1416885 -0.12278704 -0.17467602 0.14705701 0.18606971
both -0.22304286 -0.23670034 0.18722859 -0.21991879 0.25849122 -0.21266742 0.207117 0.24133931 -0.23891322 0.19140175 -0.17674078 0.17522447 0.1837458 0.25105184 -0.2291197 -0.2643876
give 0.08496447 0.12100944 -0.1079743 0.12704776 -0.11025016 0.117913775 -0.07571938 -0.074501514 0.10356468 -0.06723593 0.10134562 -0.12940317 -0.061102696 -0.10489993 0.14387982 0.1293477
may -0.24990502 -0.23159768 0.22847752 -0.234915 0.27422315 -0.18871593 0.21854402 0.21956153 -0.21855812 0.28309867 -0.24055135 0.20523794 0.21534213 0.24484698 -0.23747759 -0.22089674
ive 0.053717647 0.12878917 -0.016324773 0.0133038 -0.040712275 0.113363974 -7.652714e-05 -0.06113964 0.11643319 -0.051805593 0.074207105 -0.16828772 -0.081502914 0.0045181536 0.06696568 0.022636067
own -0.19148439 -0.16470881 0.21762827 -0.16259332 0.14900376 -0.09525273 0.22120732 0.16329443 -0.19812188 0.1882768 -0.17069887 0.14495313 0.17947556 0.23244584 -0.14728513 -0.20032108
thought -0.06885502 -0.084341556 0.17747997 -0.14178874 0.11838435 -0.09626299 0.074077904 0.08640792 -0.076327905 0.10295522 -0.09531719 0.10532354 0.14958145 0.2105846 -0.11651926 -0.08024549
original 0.20738669 0.22338755 -0.20100434 0.2364079 -0.21922371 0.25224805 -0.25028673 -0.19813536 0.22072507 -0.27118322 0.22380604 -0.23136963 -0.2356879 -0.219048 0.22497895 0.22796899
big -0.014837951 0.05214326 -0.01404814 -0.025269745 -0.019807108 0.018433863 0.008974248 -0.02352746 0.013026914 -0.04454478 0.030641595 -0.012868906 -0.0525022 0.05569925 0.009669312 -0.04859958
series -0.25930807 -0.19833957 0.24548234 -0.24019247 0.21176153 -0.2638883 0.27959514 0.23975344 -0.27274102 0.2724618 -0.21031971 0.24747288 0.25693554 0.34046045 -0.23781197 -0.28227702
gets 0.14671832 0.142133 -0.1703104 0.09342296 -0.15986583 0.15545556 -0.14651304 -0.10700643 0.19798514 -0.109612525 0.10388822 -0.14129312 -0.18396994 -0.10560012 0.17905366 0.1672318
without 0.0060899733 0.0027134947 -0.0246333 0.03424407 -0.0247917 0.011130555 -0.015182012 0.055398017 0.036568854 0.024030684 -0.0029433756 -0.03286569 -0.035865042 0.02232592 0.04488017 0.018475417
come 0.0062687905 0.030336084 0.068114854 -0.0028469255 0.024144912 0.011374583 0.024601022 -0.013547182 0.079102606 0.013940892 -0.022793546 -0.044222217 -0.018099066 0.03438088 -0.011968206 0.0012437517
always -0.1694718 -0.26662046 0.26584172 -0.28189343 0.24100335 -0.20015725 0.26740882 0.27530736 -0.20298436 0.28376856 -0.27007273 0.23040868 0.2120572 0.2840195 -0.23433252 -0.20400615
right -0.13023242 -0.16727297 0.1305657 -0.15392049 0.1339385 -0.08802044 0.16085488 0.15057918 -0.10901363 0.13153447 -0.16170537 0.12033663 0.18699029 0.22774722 -0.1364483 -0.15148097
times -0.1906542 -0.23078074 0.26248932 -0.24739659 0.22875208 -0.16397038 0.19829655 0.16318744 -0.13539918 0.22085576 -0.18998253 0.19862 0.23274377 0.20020613 -0.18580048 -0.2351701
isnt 0.057168327 0.05046361 -0.066298984 0.12295458 -0.040560868 0.121610604 -0.033064004 -0.12723728 0.08702758 -0.062334992 0.070085585 -0.14870873 -0.044681665 -0.10694714 0.0798147 0.03475243
saw -0.12695773 -0.16718799 0.12017209 -0.12632509 0.12643786 -0.113402 0.18422145 0.115199015 -0.07495378 0.13819605 -0.08641681 0.053277694 0.07338058 0.15927282 -0.17519571 -0.13083626
long 0.06662729 0.069730505 -0.09868493 0.12149651 -0.058223363 0.10188283 -0.07035043 -0.033713292 0.1470073 -0.107246615 0.056504104 -0.15195118 -0.14697765 -0.0022069989 0.122296475 0.11476654
least 0.23202293 0.23911776 -0.27625343 0.30439398 -0.26985666 0.26506266 -0.23161077 -0.21512745 0.24150652 -0.2864213 0.22362608 -0.22354911 -0.29608694 -0.29336366 0.30877388 0.28547066
whole 0.14470895 0.17807785 -0.10964939 0.15007211 -0.17228885 0.1701452 -0.12708178 -0.18052782 0.18422261 -0.19102003 0.19076705 -0.15234335 -0.20444466 -0.08567541 0.15469047 0.13962114
theres 0.18273154 0.24337687 -0.28068206 0.27360553 -0.21335207 0.25093576 -0.21634106 -0.22622055 0.2821099 -0.27246425 0.18035787 -0.21345054 -0.23019679 -0.22719832 0.23018382 0.2527673
point 0.16772546 0.15853633 -0.11914103 0.119786136 -0.09213282 0.15739173 -0.1652599 -0.18894634 0.19515336 -0.19339919 0.15937287 -0.1843472 -0.19598816 -0.11845633 0.1451342 0.17109723
role -0.05019649 -0.04720126 0.091879666 -0.06880352 0.09019072 -0.074655816 0.15874046 0.13236095 -0.053603027 0.07771194 -0.09597793 0.039130922 0.07417662 0.13843897 -0.11628955 -0.11628075
family -0.13508268 -0.15199728 0.23333997 -0.21852376 0.25857234 -0.1396433 0.16710433 0.20401505 -0.14435415 0.21967486 -0.14638925 0.14201635 0.22613783 0.20465176 -0.18727532 -0.24542485
action -0.052515868 -0.08414335 0.1578021 -0.12682153 0.09996876 -0.08137145 0.14385206 0.09178721 -0.04354222 0.10757682 -0.11232893 0.03758903 0.048962675 0.14481467 -0.089243144 -0.08523621
interesting 0.19759491 0.16941704 -0.20556802 0.21512002 -0.12087516 0.15073255 -0.11099637 -0.14111367 0.15819395 -0.19830525 0.1261455 -0.18937413 -0.18808356 -0.10624354 0.20669286 0.13093576
almost 0.041540965 0.027548049 0.0038584138 -0.016384268 0.012557552 -0.009517459 -0.026783455 -0.014432897 0.05193976 -0.02959748 -0.00024850533 -0.06041834 -0.050410673 -0.024172934 -0.032747872 0.029044893
must -0.0035850543 0.013029516 0.026369479 -0.025830833 0.079966925 -0.0132809235 0.01632717 -0.008406067 0.03297159 0.01283108 -0.026594868 -0.030210167 0.03093009 0.11919564 -0.04552431 -0.027950808
comedy -0.1315746 -0.10600344 0.09319429 -0.112636596 0.16896084 -0.096569456 0.13438521 0.16889879 -0.054325897 0.076939315 -0.056440715 0.08551704 0.10025934 0.19833514 -0.13193218 -0.13418485
bit -0.26475486 -0.3370726 0.3274214 -0.34497535 0.29872438 -0.32986692 0.26572633 0.30570602 -0.35822052 0.33624616 -0.3204956 0.3259179 0.36309594 0.33253276 -0.27729052 -0.33394122
music -0.13349429 -0.14694034 0.20756921 -0.19475208 0.22861765 -0.1051898 0.18340795 0.23971342 -0.14035368 0.15845782 -0.21306649 0.09074438 0.18198915 0.18649364 -0.158361 -0.23218125
done 0.008280191 -0.03924924 0.01604529 -0.04699889 0.06555523 0.017086722 0.08600339 0.013478714 0.05283632 0.02759832 0.013007376 -0.023214042 0.013646777 0.11337767 -0.073626444 -0.027052587
script 0.2709086 0.3548419 -0.3159073 0.36479196 -0.34822085 0.33468655 -0.32147545 -0.27851972 0.37308267 -0.34302494 0.28169215 -0.32852033 -0.32050523 -0.33032978 0.316544 0.3201059
guy 0.19737674 0.25782356 -0.26234403 0.17463405 -0.22963576 0.2189544 -0.16503097 -0.18544558 0.24527843 -0.21514279 0.23529395 -0.21081053 -0.19760968 -0.21595399 0.19512884 0.22473389
minutes 0.26892945 0.28321177 -0.32028437 0.32853475 -0.29323977 0.30721316 -0.34113237 -0.36388135 0.33351734 -0.3409638 0.33132455 -0.33539551 -0.30393085 -0.32620746 0.36500585 0.39708832
might 0.19446972 0.17336662 -0.21260032 0.2114608 -0.16107455 0.25525832 -0.23833558 -0.17379236 0.22757673 -0.21818241 0.22211668 -0.18080996 -0.19351043 -0.16760564 0.18629035 0.18243209
anything 0.19093429 0.23376727 -0.18700628 0.20614429 -0.16499619 0.19338177 -0.14259532 -0.22113767 0.17140122 -0.22217688 0.14704399 -0.22354634 -0.2234762 -0.17280455 0.16837944 0.22627768
last -0.076242514 -0.0870046 0.14350195 -0.06623906 0.077669695 -0.043507006 0.085820474 0.096963726 -0.06082124 0.13784984 -0.1087413 0.07737287 0.10793504 0.1683036 -0.1242863 -0.15276738
since -0.07250533 -0.004012897 0.09566935 -0.09089489 0.11548593 0.035221778 0.038768865 0.06436788 -0.025749164 0.021471294 -0.08831571 -0.065065295 0.071068205 0.13552764 -0.07212631 -0.038995963
far 0.14011864 0.22240977 -0.13978377 0.2284242 -0.1969331 0.17158736 -0.14037256 -0.15345834 0.20073837 -0.20633085 0.18036567 -0.18703686 -0.21656053 -0.1965778 0.22336705 0.14414154
feel -0.09396456 -0.021725047 0.0912128 -0.1061093 0.051958904 -0.013064333 0.076538116 0.12545803 -0.09037963 0.099840865 -0.07186548 0.057011157 0.108206056 0.14535806 -0.1232217 -0.049501907
hes 0.12458263 0.13153316 -0.10421755 0.08971248 -0.042384144 0.061945558 -0.08581121 -0.09750796 0.06590715 -0.11461842 0.1426051 -0.07674498 -0.11586618 -0.10164645 0.11294376 0.046911836
performance -0.19292237 -0.22581905 0.22034957 -0.1989388 0.28470612 -0.22448729 0.24058822 0.23187113 -0.16088343 0.27689862 -0.20540984 0.18089944 0.19080907 0.25179684 -0.26157007 -0.20909868
probably -0.050020803 -0.017165363 0.112510554 -0.01001818 0.014643064 -0.0020672525 0.083069935 0.05760234 -0.024565786 0.09188971 -0.07748599 0.026526725 0.034343913 0.10318476 -0.013369528 -0.06628639
kind 0.13601351 0.16424192 -0.16107507 0.18433717 -0.1812411 0.13745686 -0.11009411 -0.14233898 0.23288064 -0.16778827 0.16703133 -0.19191596 -0.12530625 -0.15049727 0.180667 0.15844053
am 0.18038356 0.14799848 -0.115043655 0.13738936 -0.109939225 0.10635911 -0.11305773 -0.06987113 0.119979925 -0.083381414 0.15186577 -0.17822365 -0.10198786 -0.085566506 0.12385543 0.12454135
away 0.0654158 0.12403625 -0.043535445 0.02571898 -0.06303539 0.09934165 -0.05202294 -0.09272845 0.07525686 -0.046483617 0.034277137 -0.102154955 -0.08957947 -0.053676113 0.05159992 0.08682833
rather -0.015161787 0.010049001 -0.004964943 -0.030078223 0.028128976 0.048401218 0.0093520405 0.063760035 -0.0369358 0.03462547 0.035297062 -0.06853246 -0.048887182 0.022137415 0.0030699784 -0.012990916
yet -0.17584561 -0.15957563 0.19281259 -0.14346589 0.18011574 -0.14085604 0.22505489 0.23354062 -0.14142759 0.22289805 -0.15992051 0.14867131 0.14273281 0.25412163 -0.15097095 -0.22215512
worst 0.39331603 0.4113523 -0.35575524 0.390003 -0.38506275 0.36496624 -0.38024193 -0.41112918 0.34110346 -0.42684317 0.40970173 -0.3524629 -0.3611042 -0.4642678 0.43834093 0.41896188
sure -0.11895396 -0.12657861 0.07486063 -0.09500605 0.08670117 -0.075244114 0.07972659 0.14467436 -0.060127027 0.08181835 -0.13922346 0.09556276 0.15919054 0.12364589 -0.1276169 -0.15465051
tv -0.07112842 -0.05250772 0.036386497 -0.1095714 0.04326482 0.02001723 0.08253008 0.05088935 -0.0763955 0.083580375 -0.08864996 -0.008639016 0.08680068 0.124130346 -0.06789415 -0.044177216
fun -0.28028437 -0.32689318 0.35502645 -0.32153085 0.3883067 -0.3303366 0.37549224 0.36721393 -0.3856697 0.40106207 -0.38042885 0.3027549 0.4121662 0.39195415 -0.4068675 -0.31798348
each -0.24993621 -0.26056045 0.21449246 -0.25080776 0.2458811 -0.24098206 0.2835926 0.19597095 -0.172112 0.28069544 -0.22109766 0.25205293 0.21123445 0.2722023 -0.2427428 -0.20524529
woman 0.16302079 0.13337067 -0.17681946 0.14364053 -0.18420863 0.2101259 -0.11231574 -0.20440546 0.14417388 -0.18467902 0.19672702 -0.23593219 -0.24083401 -0.14910094 0.16400518 0.22533071
girl 0.059995767 0.046063464 -0.03479217 0.038385537 -0.08486176 0.12748288 -0.055655476 -0.042375498 0.097651735 -0.050715387 0.042610724 -0.116164766 -0.09306773 -0.043614708 0.07769042 0.08005354
played -0.13459961 -0.20956902 0.22273192 -0.16248718 0.24090055 -0.17823666 0.20414448 0.23875521 -0.16992323 0.1746519 -0.1830149 0.18131742 0.2285034 0.2705829 -0.23440365 -0.20188312
making 0.20337915 0.21275759 -0.20354491 0.2553169 -0.20551513 0.27286914 -0.2276411 -0.23078714 0.23022571 -0.2807684 0.23774944 -0.20585392 -0.2586618 -0.22571968 0.20321679 0.18650438
anyone -0.010715508 0.025504729 0.027031062 -0.050429568 -0.001814497 0.072715394 0.022850882 0.057623927 0.06705154 -0.030910186 0.051421452 -0.08873219 -0.05712131 0.061782736 -0.02549878 -0.016074661
found 0.012248058 0.012922261 -0.058225416 0.018904593 0.0021362712 0.015652446 -0.027403098 -0.023330037 0.022070184 -0.046856377 0.030858288 -0.025869178 -0.077488236 -0.018816624 0.05547965 -0.018654842
our -0.16180362 -0.16583852 0.245564 -0.19432381 0.15636964 -0.16755751 0.19458024 0.20581435 -0.19813505 0.23239261 -0.18662097 0.20887186 0.16407561 0.24274921 -0.24644424 -0.22073819
having -0.00022289675 -0.038950864 0.03799585 0.014463592 0.0021531882 0.041057356 -0.008354889 0.032888558 0.054894272 -0.0054327426 -0.030923834 -0.065218516 0.038678013 0.013414805 0.0077935136 -0.062667124
although -0.20255758 -0.22231948 0.18668346 -0.26209077 0.19108973 -0.24355453 0.2149889 0.2307183 -0.15517637 0.20532793 -0.16087162 0.2116608 0.18728817 0.26355523 -0.2533693 -0.20459683
comes 0.067165576 0.08178053 -0.04935889 0.07415483 -0.053173736 0.061663397 -0.047077652 -0.040793564 0.113880835 -0.09787354 0.074676976 -0.06496075 -0.084747076 0.0013017156 0.11339901 0.10674911
believe 0.22916973 0.2700935 -0.30368215 0.29129094 -0.27400613 0.2723845 -0.24132244 -0.28905144 0.31106454 -0.24362421 0.2583852 -0.27484363 -0.29104465 -0.28513873 0.29989344 0.25346267
day -0.20841548 -0.26429787 0.19047956 -0.27292234 0.18718226 -0.22969623 0.25028878 0.22289465 -0.17987533 0.18814777 -0.2491052 0.22776687 0.26282915 0.29988697 -0.22754355 -0.26880196
trying 0.22951126 0.28407747 -0.3043525 0.253759 -0.26390934 0.3348522 -0.21501084 -0.24467558 0.30807504 -0.25947145 0.31177655 -0.31200585 -0.2687493 -0.2770052 0.32199854 0.25709748
course -0.21648046 -0.16091152 0.19078837 -0.1912534 0.16752613 -0.14613613 0.1857529 0.16221872 -0.17335592 0.17753744 -0.15530826 0.1920812 0.21670637 0.21018432 -0.17205557 -0.24621257
especially -0.22499254 -0.2166204 0.22723098 -0.20739502 0.22562833 -0.21475469 0.24529219 0.23497814 -0.1987525 0.18027583 -0.24259445 0.20724343 0.232649 0.24214315 -0.19665971 -0.18753496
goes 0.10031288 0.057189856 -0.07944636 0.06747654 -0.070477664 0.10740276 -0.089429945 -0.06539427 0.1200434 -0.07265434 0.05844973 -0.10306826 -0.06332452 -0.0717765 0.121935405 0.05445182
looks 0.32478723 0.33397615 -0.3083355 0.32156548 -0.3233568 0.3233557 -0.27297926 -0.32805952 0.29500794 -0.28472543 0.3030009 -0.2585094 -0.28154752 -0.2705198 0.33334944 0.285864
different -0.26940128 -0.2898407 0.29376733 -0.25031802 0.29520765 -0.31244436 0.2466864 0.24931914 -0.23725617 0.27854005 -0.28928548 0.2983026 0.280338 0.287921 -0.33122998 -0.27393895
hard 0.11061054 0.06852375 -0.04587412 0.089644834 -0.09237742 0.055832934 0.002085698 -0.043576002 0.05228167 -0.017060833 0.01897874 -0.1501718 -0.035520136 -0.0061448836 0.051919576 0.075868405
place -0.042484615 -0.01594181 0.14231622 -0.12381136 0.1059421 -0.05090538 0.118244655 0.13492918 -0.01745287 0.10443609 -0.09014091 0.0043615266 0.047026526 0.09095811 -0.11843563 -0.1032195
shows -0.18992259 -0.25247747 0.25397468 -0.28209734 0.26657748 -0.21793409 0.2234245 0.23861802 -0.24573855 0.25836706 -0.29437608 0.28481254 0.28328016 0.25479132 -0.26818785 -0.29405123
book 0.08332423 0.14981237 -0.07212505 0.12947108 -0.11390756 0.12317965 -0.12580651 -0.10292744 0.09934613 -0.14677353 0.09718615 -0.14784417 -0.16314612 -0.14222682 0.14401324 0.102728084
put 0.07551098 0.108948454 -0.06791717 0.08570636 -0.11272971 0.08428684 -0.07919807 -0.040185537 0.12904909 -0.11744179 0.1362902 -0.10996241 -0.059606485 -0.034047633 0.0856227 0.092389256
wasnt 0.2259803 0.2313747 -0.20059477 0.19272749 -0.13534299 0.23342982 -0.15596583 -0.17747551 0.23445307 -0.15762815 0.18672387 -0.24669796 -0.19926879 -0.15555277 0.23050374 0.17111942
ending 0.012678065 -0.013992796 0.0013815854 -0.013316153 0.0039238757 0.010340611 0.063572004 0.045548167 -0.0018890905 0.028880892 0.029353142 -0.07178595 -0.008401725 0.07767994 0.035876952 -0.056318786
sense 0.21195796 0.17323084 -0.21464992 0.18538606 -0.15227139 0.18830188 -0.10589774 -0.18192078 0.19584168 -0.13478707 0.19572918 -0.23966356 -0.17948289 -0.14085549 0.19552593 0.13257101
once -0.07267258 -0.079922 0.16874419 -0.1001221 0.07749177 -0.11779975 0.12254349 0.12692116 -0.09772069 0.12660599 -0.102599435 0.09170932 0.11333021 0.17052583 -0.14446793 -0.12119423
reason 0.18199782 0.23621202 -0.26232442 0.2569522 -0.18993907 0.26694784 -0.19631515 -0.20426486 0.24345055 -0.20095797 0.2031861 -0.23683721 -0.23262633 -0.26828295 0.25441933 0.20533086
true -0.31525183 -0.2978006 0.2973672 -0.28408 0.25194696 -0.27450305 0.25539526 0.2694559 -0.31132516 0.32320032 -0.24204184 0.25964582 0.33455205 0.28457272 -0.35872328 -0.28840545
main 0.09903148 0.1537788 -0.09351458 0.10323013 -0.09898086 0.17086418 -0.10969778 -0.089590564 0.15186585 -0.07103146 0.097712405 -0.12296995 -0.14838377 -0.10030222 0.11931248 0.13281704
everything -0.0149287 0.04422056 0.07524766 -0.026195306 0.04473938 -0.0069248555 0.016879128 0.028127795 -0.0068029384 0.03415966 -0.018385127 0.0060337367 -0.02119896 0.072080396 -0.033071335 -0.031323053
screen 0.032849174 -0.023785392 -0.03302941 0.00468141 0.011979248 0.013884641 0.05608421 -0.033618968 0.016993942 -0.02076545 -0.0136708915 -0.018122377 0.0077369995 -0.005980771 -0.019297987 -0.043691117
maybe 0.004072267 0.014829569 -0.009830936 0.074449606 0.020383501 0.04568737 0.0039792843 -0.06816314 0.080543466 -0.038099486 0.07097633 -0.07964487 0.01045556 0.0141413575 -0.015987707 0.021597233
money 0.28217196 0.2919897 -0.3626935 0.29142183 -0.31460974 0.31274837 -0.32365876 -0.28486818 0.27835783 -0.375358 0.2782404 -0.27695748 -0.35721487 -0.36033538 0.34428284 0.3537547
worth -0.0035982947 0.060384538 -0.022839189 -0.030170351 0.023221193 0.031882398 0.03519728 -0.018046645 0.042093843 -0.0046320525 0.05308974 -0.06721811 -0.034378156 -0.015209651 0.049298476 -0.015168806
together -0.21298581 -0.25451025 0.18803416 -0.20851433 0.238282 -0.17312227 0.22118114 0.2595419 -0.15453862 0.25878567 -0.25422022 0.16332324 0.20802341 0.2510737 -0.1799866 -0.20666896
someone 0.22967926 0.29448357 -0.29868707 0.31407183 -0.21454532 0.25081375 -0.210217 -0.3032065 0.2853769 -0.3068531 0.289682 -0.29336202 -0.29791126 -0.31227475 0.27536878 0.296486
job -0.29660067 -0.33720225 0.25761917 -0.33228764 0.3143967 -0.3039132 0.32424927 0.30635858 -0.32926932 0.31456408 -0.25539672 0.29973754 0.33733562 0.3393803 -0.32485476 -0.30137956
2 0.22139859 0.23398899 -0.1731046 0.19591922 -0.16160151 0.23948772 -0.15183054 -0.2521043 0.23874691 -0.18281673 0.20940246 -0.18352257 -0.24560224 -0.226231 0.23319986 0.23241796
actor 0.1827072 0.18676941 -0.16414559 0.20412837 -0.1666134 0.23995163 -0.1778359 -0.24225043 0.2624431 -0.25127262 0.2541537 -0.20471203 -0.16611095 -0.1320698 0.22816473 0.1793638
set -0.005209256 0.08307183 -0.018493159 0.030780474 0.03200697 0.044252478 0.020604348 -0.05249178 0.06331882 -0.075857036 0.061443564 -0.1077284 -0.103696436 -0.02289025 0.07700106 -0.009413499
dvd -0.16547 -0.109447755 0.17061363 -0.18016805 0.13128729 -0.08901822 0.1226376 0.18071294 -0.082290255 0.13781615 -0.1794674 0.14591056 0.1943065 0.15976653 -0.10848038 -0.1431384
looking 0.13586953 0.14184411 -0.118552506 0.084066905 -0.094585665 0.15815102 -0.14738315 -0.098725 0.17296536 -0.117881835 0.16274697 -0.13343704 -0.12938307 -0.14972784 0.15423618 0.1165225
watched 0.024642648 -0.056038346 0.05504295 -0.07190207 0.082834095 0.023783501 0.10077802 0.090119995 0.022753749 0.00812743 -0.011629524 -0.03481517 0.024074826 0.07066388 -0.09417945 -0.107865125
plays -0.21287307 -0.15705319 0.2243994 -0.14246659 0.21354395 -0.13241708 0.22052886 0.16298416 -0.14110507 0.173966 -0.21998575 0.14763394 0.17619239 0.23145169 -0.1834144 -0.24872467
instead 0.26627073 0.2712036 -0.25779226 0.2767064 -0.25420794 0.2643456 -0.2651059 -0.24922125 0.25770187 -0.28011128 0.22658987 -0.23462634 -0.22913253 -0.29063845 0.27122903 0.26897442
said 0.12574236 0.1119192 -0.07723284 0.10671324 -0.13226333 0.15683466 -0.14111444 -0.16160625 0.17399289 -0.12751397 0.13578479 -0.14957224 -0.11828928 -0.16147557 0.15827754 0.101509005
play -0.06728846 -0.056723118 0.080920525 -0.07691087 0.082062304 0.022117093 0.054105826 0.08376327 -0.008523579 0.05795982 -0.09126374 -0.045396034 0.0758639 0.09102866 -0.059122805 -0.04025552
takes -0.11898561 -0.17489816 0.19920138 -0.12496321 0.21150501 -0.048746426 0.18202929 0.11627464 -0.077298075 0.11501846 -0.09833886 0.09129988 0.158975 0.15825526 -0.1793891 -0.11824002
seem 0.015379802 0.012372115 -0.09138483 0.03766194 -0.051415157 0.093535304 -0.08686722 -0.045278512 0.029807918 -0.09407563 0.083095916 -0.102770485 -0.09809168 0.0028102528 0.029956123 0.0504688
10 0.005986749 -0.03551868 0.06618898 0.012402498 0.03151384 0.014889073 0.015630014 -0.020323157 0.046546817 0.02755261 0.020604135 0.002128282 0.039514624 0.059357803 -0.06575403 -0.0650848
three 0.11724706 0.12526205 -0.0231302 0.093281694 -0.025513252 0.10884232 -0.020647416 -0.086173795 0.14788142 -0.08440767 0.035480514 -0.123412654 -0.061263826 -0.045445662 0.10257032 0.096792385
later -0.16087154 -0.12632635 0.18287607 -0.08236281 0.11031119 -0.07013413 0.09044598 0.16261667 -0.14794137 0.12523946 -0.09985828 0.112408474 0.17402107 0.14386176 -0.11852064 -0.09803299
beautiful -0.24563093 -0.28812236 0.33948284 -0.33039996 0.27269056 -0.25687847 0.25147128 0.2740648 -0.2980655 0.2784409 -0.32781616 0.3349422 0.32727727 0.37123537 -0.30913618 -0.34214786
effects 0.20176283 0.18019369 -0.12220491 0.12854536 -0.20451586 0.17035367 -0.20021677 -0.13506848 0.16201377 -0.16901217 0.18028927 -0.1795832 -0.14391017 -0.21312861 0.18898411 0.16254357
himself 0.031624947 -0.0128926085 -0.00058145705 0.014445939 -0.00834305 0.0066282446 0.007339643 -0.013000234 -0.0048134667 0.052142933 -0.027581094 -0.034410324 0.019633222 0.05538787 0.054291975 -0.0069819903
everyone -0.16910115 -0.21010831 0.23601252 -0.20181416 0.18616104 -0.17764014 0.213324 0.26490727 -0.20591569 0.21258205 -0.22336067 0.1944881 0.21210791 0.28719512 -0.27738518 -0.26600164
during 0.048626795 0.03277872 -0.013829517 -0.020719225 0.035738222 0.04450844 0.024240712 -0.0071386117 0.055834454 0.020343734 0.047260143 -0.12664315 0.010860342 0.024506377 0.011652074 -0.0066540614
excellent -0.3543418 -0.40095365 0.36902153 -0.37555984 0.37641087 -0.3956002 0.37423906 0.3273626 -0.3842358 0.3527846 -0.359772 0.36198115 0.35696414 0.40435666 -0.40402988 -0.42964947
audience -0.009981538 0.009413742 -0.030984575 0.053015392 0.011540996 0.070339166 -0.0065641757 -0.004228867 0.03387624 -0.004233594 0.012489899 -0.08190689 0.0027635188 -0.029434135 0.018641718 0.031932667
special 0.07404994 0.08297495 -0.06822183 0.00865248 -0.04995947 0.10256645 -0.030635098 -0.066194035 0.11822538 -0.028744057 0.102715716 -0.066536 -0.06274848 -0.057961192 0.05665129 0.06610717
john -0.11620883 -0.124378525 0.1538493 -0.11974395 0.09321903 -0.084001705 0.14256819 0.09586244 -0.06317694 0.08492948 -0.10915563 0.060227428 0.06882301 0.09450604 -0.1356713 -0.07984322
left 0.081825346 0.121307656 -0.068501726 0.12069133 -0.11920435 0.07040662 -0.11676346 -0.056821987 0.075014666 -0.046772517 0.118838005 -0.15037832 -0.10011346 -0.058668043 0.06781379 0.038707823
house -0.042629093 -0.034350142 0.017718736 0.00082258496 0.012540863 -0.019283298 0.010412257 -0.03341681 -0.01459614 -0.039532203 0.013863078 -0.06523096 -0.046101555 0.025650995 -0.03675766 -0.021735795
version -0.08518968 -0.07750966 0.06799339 -0.049098264 0.110163204 -0.08735873 0.07183959 0.0480894 -0.06777226 0.055424068 -0.041573633 0.07314284 0.020365298 0.041448697 -0.04244241 -0.079546414
seeing -0.057867777 -0.071090996 0.10578884 -0.031552035 0.112169355 -0.06284576 0.101928145 0.109977506 0.0036426745 0.04148233 -0.06585133 0.045774348 0.024351913 0.065868706 -0.056472037 -0.0987538
american -0.13541001 -0.17098866 0.23215725 -0.15367179 0.15230176 -0.17491262 0.19918449 0.16292898 -0.12780683 0.2026478 -0.22133 0.1648318 0.16345434 0.24281381 -0.20136409 -0.2064508
night -0.0603007 -0.029809253 -0.004834053 -0.0022869245 -3.9790888e-05 -0.03506004 0.055627957 0.013060382 0.051654756 0.061740138 -0.01692145 0.014906929 0.012804374 0.08766095 0.012800475 -0.06993473
idea 0.22188854 0.25116473 -0.26270345 0.2588368 -0.27862698 0.3456146 -0.24856164 -0.23895463 0.26494482 -0.26555446 0.24599575 -0.3380053 -0.25736675 -0.29248023 0.35394338 0.2570529
shot 0.17135003 0.1948155 -0.16848454 0.15645105 -0.18833052 0.12668397 -0.11056856 -0.13726126 0.16924293 -0.13395458 0.13376762 -0.1555251 -0.1445832 -0.1820123 0.14866462 0.1680264
nice -0.18691039 -0.1795588 0.21329321 -0.16707096 0.22069667 -0.16591632 0.21562614 0.15288605 -0.14069368 0.20943843 -0.16277292 0.19123553 0.19785456 0.25334722 -0.17409839 -0.23598807
wife 0.08747145 0.07942177 -0.09642099 0.06130696 -0.077370726 0.1632492 -0.06001613 -0.05428621 0.1419405 -0.062118854 0.1490073 -0.11096561 -0.15592062 -0.07222582 0.08663434 0.119483724
simply 0.16365957 0.2396662 -0.1858277 0.15482691 -0.12906995 0.20136434 -0.15894055 -0.14125653 0.21733382 -0.23063725 0.1509855 -0.21082152 -0.22230665 -0.13971315 0.18565655 0.16033268
help -0.083044924 -0.07210703 0.12727977 -0.10601542 0.043102738 -0.002256445 0.057339378 0.12472599 -0.05069341 0.052724335 -0.040261015 0.021692345 0.09836844 0.06282622 -0.09786891 -0.06447566
else 0.034747455 0.12507784 -0.06399041 0.039636727 -0.08460763 0.043037686 -0.046859454 -0.09718396 0.068110466 -0.054301254 0.121295236 -0.0808296 -0.042560548 -0.05472207 0.06862885 0.09389657
black 0.11258214 0.08317618 -0.08648174 0.108090185 -0.093211584 0.095818594 -0.07438597 -0.0994941 0.14307146 -0.118776605 0.13966636 -0.15951581 -0.14026834 -0.092232145 0.08482871 0.102988556
less 0.21720868 0.23831232 -0.224079 0.12901765 -0.21610773 0.18157026 -0.1702772 -0.199617 0.19375122 -0.2116146 0.23376328 -0.20498721 -0.16290219 -0.1339148 0.18888056 0.15016685
death 0.019322805 0.08787116 -0.073653415 0.024708973 -0.04750144 0.064639315 -0.0066823964 -0.021703208 0.07494413 -0.06997704 0.020466652 -0.07009142 -0.09832568 -0.032024566 0.056143206 0.06198883
read 0.02724703 0.04554679 -0.044204403 0.050671477 0.000936555 -0.010268617 -0.029053662 0.008925238 0.009594546 -0.06457007 0.047539715 -0.016621124 -0.07070687 -0.05106091 0.061796945 0.0023333374
fan -0.06796625 -0.115026586 0.14067121 -0.05880011 0.13371505 -0.07899249 0.11031394 0.14348541 -0.042551752 0.10635733 -0.086492665 0.0543289 0.121852584 0.18909396 -0.06400878 -0.12181328
star 0.025621505 0.02777138 -0.06791448 0.101794235 -0.045723874 0.06863747 0.008999892 -0.048771355 0.051771503 -0.074519046 0.015260807 -0.12927443 -0.08472253 -0.03317759 0.121065326 0.0853212
youre 0.11221375 0.09852896 -0.060169846 0.14550926 -0.09067493 0.11665791 -0.117255 -0.083492324 0.114329986 -0.12116361 0.07484645 -0.08442246 -0.1081728 -0.1366549 0.070300706 0.0967197
kids -0.06637275 -0.042247187 0.072471306 -0.045955375 0.07065533 -0.054046262 0.123936884 0.12008032 -0.08679359 0.060944006 -0.037143804 0.083502345 0.09239379 0.06396654 -0.061131578 -0.05859313
war -0.23300838 -0.19402637 0.18066311 -0.2573072 0.1765122 -0.20672192 0.16679601 0.20090774 -0.21523991 0.23486075 -0.20128731 0.2208385 0.23781961 0.19833308 -0.2510156 -0.21474929
used 0.038132597 0.051894136 0.022407357 -0.035140153 0.0139321685 0.06153447 0.015889911 0.052945722 0.017294187 0.014619523 0.039945804 -0.012495518 -0.03146091 0.022659687 0.01998816 0.029032724
high 0.024192099 0.0780717 0.018680595 -0.012618573 -0.027985303 0.019923393 -0.009519644 -0.041898087 0.05855284 -0.027848015 0.05000296 -0.022440718 -0.03841223 0.038809348 0.057122674 -0.039785385
father -0.19462198 -0.14866081 0.21323021 -0.23432045 0.25384748 -0.10688423 0.20499597 0.25029242 -0.20871381 0.16651888 -0.18821317 0.16430545 0.1470926 0.24063183 -0.1542476 -0.16339397
second -0.09617041 -0.13344775 0.12059253 -0.0795674 0.15154022 -0.10530298 0.09189885 0.15399927 -0.14008243 0.09752139 -0.0874327 0.023520373 0.12640052 0.124322034 -0.08142422 -0.14698148
completely 0.23103817 0.2116236 -0.2581327 0.22410719 -0.2436684 0.29136524 -0.2203708 -0.2100538 0.2931076 -0.25702256 0.2546113 -0.23796463 -0.22612372 -0.21270858 0.28132704 0.2545151
friends -0.024081971 -0.076929465 0.064063214 -0.10388076 0.1437714 -0.03602563 0.043544155 0.05899325 -0.0587926 0.11768773 -0.029129462 0.011189002 0.04693443 0.11871361 -0.05575354 -0.08712134
year -0.175399 -0.18536583 0.16931345 -0.20262684 0.16044909 -0.13266107 0.1894633 0.14794001 -0.121400975 0.18464859 -0.1922147 0.16607147 0.17435291 0.25404522 -0.18320851 -0.23710404
wrong 0.22771916 0.21671578 -0.23062393 0.26516816 -0.2774568 0.2913485 -0.1885361 -0.21617216 0.2965823 -0.22767134 0.28402624 -0.2077668 -0.21933481 -0.223719 0.21432623 0.29882503
either 0.119229354 0.1784681 -0.111629955 0.133851 -0.13439752 0.13811922 -0.18106315 -0.16751496 0.17782061 -0.1680667 0.14695829 -0.12299491 -0.17050591 -0.15571435 0.12136118 0.13606021
mind 0.0833486 0.06446804 -0.021865863 0.088728346 -0.02544087 0.12631972 -0.058315724 -0.009632411 0.022238709 0.0005617314 0.05701115 -0.04468272 -0.09333814 0.0068392237 0.041085776 0.011728809
given 0.06505022 0.08322586 -0.09576141 0.07305275 -0.12847614 0.11909083 -0.053361766 -0.062003236 0.11141125 -0.09137345 0.1364109 -0.13813753 -0.11393602 -0.05103271 0.069071904 0.054386288
performances -0.20465378 -0.19775486 0.19215915 -0.17056829 0.22525772 -0.16497223 0.16487765 0.20707113 -0.20964316 0.24420455 -0.20902623 0.100065224 0.2386282 0.24277495 -0.23150273 -0.19435297
poor 0.3108594 0.412 -0.3495309 0.38973853 -0.40602916 0.35973966 -0.36882588 -0.32900137 0.3442878 -0.42267743 0.40277287 -0.3453642 -0.42478168 -0.4176074 0.43533856 0.41747558
use 0.08277046 0.075189866 -0.073786594 0.08689966 -0.04370782 0.1509852 -0.07184282 -0.0867652 0.10593354 -0.15007836 0.10463118 -0.1123981 -0.10256236 -0.038681373 0.119719 0.098038614
try 0.099617355 0.16342409 -0.09040825 0.11074739 -0.11851604 0.104648046 -0.09472238 -0.13259204 0.120670296 -0.08286821 0.15528718 -0.1595076 -0.14811923 -0.1110866 0.06849528 0.050603677
home -0.07466595 -0.07948756 0.16715254 -0.07493021 0.1391707 -0.056153163 0.084005624 0.14346354 -0.080770396 0.160138 -0.13315842 0.041367374 0.12782845 0.18113613 -0.102195464 -0.09895335
boring 0.3341891 0.37587425 -0.36966136 0.37814143 -0.40537158 0.3892571 -0.35271564 -0.3687065 0.41098014 -0.33870262 0.35705808 -0.39094022 -0.36902142 -0.36375144 0.37390548 0.3811309
enjoy -0.28296503 -0.22314166 0.25415725 -0.30748925 0.29135054 -0.2441186 0.24640113 0.29708788 -0.30274907 0.2940516 -0.21080667 0.25965887 0.2675709 0.27801475 -0.23538072 -0.30223027
men -0.055604488 -0.07443041 0.0454191 -0.1207863 0.06697735 -0.059172485 0.08033862 0.077815324 -0.09158101 0.12907125 -0.060601085 0.0013886646 0.108082846 0.09241533 -0.037479162 -0.0423722
need 0.123766296 0.039887626 -0.057633504 0.10147295 -0.109260805 0.14439113 -0.10879426 -0.038935475 0.08273634 -0.07433589 0.07884315 -0.09592944 -0.051629286 -0.020651791 0.10434251 0.040812403
short -0.042786393 -0.031244013 0.11862978 -0.06846142 0.13669476 -0.03414152 0.06887244 0.13587713 -0.055847965 0.12664554 -0.063154936 0.045874715 0.038461454 0.12463821 -0.13329841 -0.13517158
rest 0.1383402 0.1693979 -0.17104836 0.22320506 -0.20040926 0.20490953 -0.17316192 -0.18071404 0.17083527 -0.15208715 0.2151226 -0.20985146 -0.2416036 -0.15234895 0.23753874 0.2370356
classic -0.2528262 -0.20070127 0.20278841 -0.25931582 0.26504925 -0.21770085 0.2655237 0.23610158 -0.18110439 0.22261052 -0.19930217 0.23688693 0.23098251 0.2696265 -0.21725796 -0.21072997
truly -0.14345075 -0.10945648 0.19369851 -0.15919217 0.122947924 -0.09028677 0.15290326 0.15497836 -0.09414251 0.18814 -0.10074124 0.13640355 0.19243261 0.14653493 -0.18720895 -0.120818764
hollywood -0.10523315 -0.17991388 0.17969961 -0.10153999 0.19274865 -0.13859324 0.15092559 0.12079106 -0.14668176 0.12773724 -0.101111576 0.1477991 0.12380183 0.16025361 -0.1330184 -0.16171479
until -0.11229206 -0.13510288 0.13213465 -0.11842076 0.13298082 -0.092113584 0.10262775 0.086719416 -0.12826104 0.06512711 -0.12788743 0.025767742 0.07539269 0.17068586 -0.12401134 -0.071008585
line 0.08651494 0.13350786 -0.15750948 0.18233061 -0.10890111 0.1790676 -0.09608875 -0.091608435 0.14176054 -0.17025279 0.15918237 -0.14855742 -0.13293797 -0.1553428 0.10716247 0.15910442
next -0.013409474 -0.08171354 0.055617042 -0.113164194 0.10031689 -0.059594415 0.036015883 0.042698335 -0.04690901 0.040029217 -0.036615815 0.041288365 0.10125164 0.09344329 -0.069031596 -0.030734932
along -0.08246816 -0.07710033 0.03980556 -0.060835402 0.03472089 -0.021043574 0.054170154 0.09839352 -0.0060526496 0.037691556 0.0016000125 0.01715159 0.016559925 0.040896185 -0.044085547 -0.036621887
production 0.17349257 0.1853969 -0.1264078 0.18325964 -0.115708485 0.15559606 -0.12879887 -0.12208654 0.19454446 -0.13172378 0.14798965 -0.1606549 -0.19090779 -0.19774804 0.13979562 0.13183118
couple 0.18816118 0.16541986 -0.15154466 0.16810073 -0.096178524 0.16243367 -0.16543046 -0.18246245 0.18820632 -0.13002762 0.18207087 -0.15670916 -0.15015137 -0.16654824 0.20670903 0.13679792
tell 0.1877079 0.22525369 -0.1908064 0.2323637 -0.21542041 0.20075446 -0.2198963 -0.2320949 0.23638521 -0.20590182 0.19068426 -0.16385293 -0.24800599 -0.17074116 0.16074027 0.19213273
dead 0.13691269 0.19828266 -0.16390891 0.19159368 -0.19216806 0.19910388 -0.17490089 -0.11671962 0.14433074 -0.20199534 0.1527711 -0.19329597 -0.11347794 -0.12576231 0.18918401 0.20049293
half 0.2809617 0.3349017 -0.24090342 0.2603724 -0.30516687 0.34063512 -0.23282853 -0.31995842 0.24949548 -0.32177997 0.25708514 -0.26415378 -0.3212527 -0.33914286 0.2914038 0.31321895
others -0.13091677 -0.10311117 0.19966769 -0.14931712 0.14931554 -0.14168356 0.20225552 0.20461744 -0.13123754 0.12107159 -0.11965913 0.08312735 0.1503741 0.19193766 -0.16057757 -0.19083734
awful 0.3647226 0.39785632 -0.37993485 0.39682075 -0.38621196 0.43395302 -0.3217461 -0.3868265 0.33151796 -0.34800586 0.32341835 -0.3225959 -0.41884243 -0.37179917 0.44122344 0.39576414
remember -0.21500616 -0.2415909 0.17122129 -0.21018215 0.19956146 -0.15061642 0.21744178 0.23149724 -0.18624327 0.24499877 -0.18710034 0.22696939 0.1956932 0.26150966 -0.21021238 -0.17322281
recommend -0.22049496 -0.2259734 0.23979656 -0.25216535 0.2759174 -0.19353232 0.25824216 0.30678132 -0.29485786 0.326714 -0.28382528 0.19692162 0.23752022 0.3318274 -0.24725373 -0.2559807
start 0.16544574 0.17136022 -0.12922405 0.17759228 -0.17385586 0.16701755 -0.14708443 -0.16745466 0.19843587 -0.20479903 0.13455942 -0.2228161 -0.13957986 -0.16085383 0.15175901 0.19702826
moments -0.04839468 -0.0178533 0.032791223 -0.090809375 0.039018866 -0.01294062 0.06741673 0.037397612 -0.07874273 0.048502043 -0.06681414 0.0021042686 0.022515165 0.082180776 -0.102601655 -0.11754276
let 0.16522941 0.27417132 -0.19497852 0.25206476 -0.16926856 0.213149 -0.22056215 -0.2609661 0.24798657 -0.26495647 0.2122446 -0.21014714 -0.2435144 -0.27035186 0.18948017 0.26927847
came -0.099372886 -0.104232565 0.079354174 -0.12293442 0.09291077 -0.09702304 0.12109778 0.13781676 -0.016701203 0.14777347 -0.03651393 -0.0045612967 0.106006704 0.1592636 -0.046029452 -0.10440836
keep 0.0010527809 -0.01483852 0.06997198 -0.08104415 0.10957072 -0.07748036 0.10709577 0.050852634 -0.07414566 0.096230194 -0.0018258262 0.0683217 0.031883456 0.060840335 -0.022257598 -0.025519984
perhaps 0.021084983 -0.03106298 0.038342156 -0.030463634 0.03440325 0.05161172 0.025059557 0.048868183 0.011642698 0.03554435 -0.027060736 -0.033698294 0.02351313 0.071659826 0.02294563 -0.0788572
full -0.030941734 -0.04291131 0.025522701 0.006364562 0.03916135 -0.026765447 0.020044453 0.028313821 -0.025099207 0.073637284 0.003062887 -0.05741893 -0.016789142 0.028897122 -0.068389684 -0.015902344
episode -0.22010106 -0.23375374 0.20423953 -0.27765366 0.26581863 -0.20272806 0.2505635 0.18862782 -0.2263251 0.20337404 -0.22961831 0.21053475 0.21622445 0.26061904 -0.27558345 -0.2775848
understand -0.18305494 -0.18032594 0.17904316 -0.15769958 0.16921633 -0.13265309 0.19603701 0.20494114 -0.15212037 0.22341558 -0.19515407 0.1681483 0.22899655 0.21071188 -0.16090596 -0.21515697
stupid 0.27406448 0.3737337 -0.3667964 0.36396566 -0.36874756 0.32134196 -0.2685689 -0.32326612 0.35678726 -0.37421906 0.36663774 -0.3475079 -0.378564 -0.34395665 0.38420206 0.35410073
stars 0.022371834 0.051623482 -0.016499327 -0.028340716 0.031455882 0.08560261 -0.02339822 0.045934577 -0.0032322803 0.027663188 0.04615799 -0.05490565 -0.04107238 0.006157488 0.033617243 -0.018447766
camera 0.2325004 0.21592797 -0.27918333 0.27568576 -0.18852349 0.29559863 -0.23392132 -0.27116743 0.21706794 -0.28016457 0.23630492 -0.2974587 -0.23821402 -0.20996873 0.23845972 0.23785056
mean 0.19776118 0.2348021 -0.20302546 0.22527687 -0.28164598 0.21673457 -0.27208346 -0.2687 0.20980427 -0.2930113 0.2047523 -0.23873839 -0.28279537 -0.2979724 0.26606318 0.2688158
women 0.08420514 0.04647313 -0.04787228 0.10623393 -0.017210713 0.0834332 -0.07642881 -0.051332112 0.08021997 -0.11995265 0.05283705 -0.14502938 -0.10546405 -0.062138483 0.10386059 0.04520008
terrible 0.2910089 0.35259154 -0.31338495 0.39863518 -0.32286966 0.42457753 -0.35489365 -0.36595377 0.31613892 -0.32780424 0.3288633 -0.38004568 -0.39738372 -0.43140906 0.41700143 0.33645535
getting 0.062001534 0.13928516 -0.069801226 0.07166032 -0.115934126 0.107784405 -0.13273242 -0.06656389 0.12981744 -0.080300584 0.054784313 -0.113949396 -0.1368864 -0.10137742 0.06435095 0.13768634
doing 0.20688418 0.1648108 -0.24269992 0.22876565 -0.19849876 0.22564739 -0.21155442 -0.19263256 0.17850122 -0.22486675 0.2328521 -0.18254884 -0.23902132 -0.23612867 0.20447975 0.22364275
playing -0.042323016 -0.052459616 0.09955419 -0.01961989 0.08770448 -0.017013406 0.078097746 0.063815765 -0.033705305 0.057186887 -0.028773488 -0.03439447 0.045259383 0.08149646 -0.035728127 -0.057911623
wonderful -0.3311494 -0.36268258 0.37987688 -0.3762291 0.35161665 -0.31159142 0.33656734 0.30131918 -0.37674257 0.31485775 -0.31677243 0.3089179 0.36705714 0.40481135 -0.36553475 -0.3263534
definitely -0.24103117 -0.21091338 0.2413149 -0.27767152 0.27490368 -0.23848817 0.23673952 0.27827832 -0.21026905 0.1935405 -0.23410425 0.20447266 0.23979545 0.2617304 -0.27253506 -0.2566073
sex 0.14225091 0.17222966 -0.18281485 0.18130971 -0.22246476 0.17549561 -0.1270209 -0.16641513 0.163641 -0.19999841 0.19135442 -0.19769116 -0.20861436 -0.1321338 0.15682188 0.2247653
small -0.19185029 -0.24854183 0.20085335 -0.20366026 0.21145749 -0.194442 0.25478116 0.25603107 -0.25405857 0.20634791 -0.231975 0.18101217 0.2324581 0.2980466 -0.25608706 -0.20207457
human -0.18362176 -0.15858129 0.17985775 -0.19841734 0.23531663 -0.169731 0.2597345 0.2596634 -0.15098289 0.1789272 -0.24548449 0.17885163 0.2020338 0.20002626 -0.20706493 -0.26827806
often -0.16442913 -0.17694135 0.20278513 -0.23772204 0.2371119 -0.2572303 0.24741715 0.19731347 -0.21749724 0.21682897 -0.26599345 0.18402988 0.2122369 0.26815033 -0.25433496 -0.20891948
gives -0.21029136 -0.2646604 0.28883296 -0.20152701 0.23836128 -0.17972194 0.26111633 0.22955082 -0.20074026 0.26512522 -0.22057486 0.20564437 0.22486697 0.23416917 -0.19724646 -0.23170951
name 0.109996535 0.15424526 -0.1293176 0.13875407 -0.13555007 0.21094278 -0.12396425 -0.19888887 0.1251361 -0.13381295 0.1911805 -0.22743171 -0.157521 -0.10040519 0.19350219 0.111378916
become -0.066900104 -0.113941014 0.09533637 -0.06701399 0.102714784 -0.0658724 0.13471837 0.15361443 -0.08795565 0.17646812 -0.11839585 0.091230534 0.11397064 0.16352485 -0.13379778 -0.09428381
early -0.048361123 -0.096514516 0.16936205 -0.094665565 0.12906781 -0.053239804 0.08660713 0.085031025 -0.089786254 0.11166151 -0.10152622 0.016242769 0.100410275 0.18730865 -0.10454111 -0.07759479
video 0.06923897 0.047795255 -0.073155075 0.05509457 -0.07120427 0.06418789 -0.09637802 -0.10412138 0.1516696 -0.048019618 0.09593625 -0.109145135 -0.054805253 -0.0836366 0.100378096 0.08127045
perfect -0.33465457 -0.3769157 0.36344284 -0.3609339 0.3558122 -0.3797791 0.3226605 0.34339696 -0.37061253 0.3116504 -0.30030495 0.3522863 0.30594996 0.3731788 -0.38219896 -0.3200542
face 0.11764929 0.03361291 -0.07292241 0.09436684 -0.071702786 0.122743145 -0.023127077 -0.08145089 0.045528922 -0.07217511 0.04368469 -0.103241384 -0.114841 -0.012993552 0.08732585 0.044526808
dialogue 0.23320593 0.28690132 -0.2157218 0.22834606 -0.20392618 0.28868392 -0.2145347 -0.2183129 0.21433331 -0.24552175 0.2394886 -0.21702744 -0.26446593 -0.22748782 0.30605087 0.25415397
itself 0.15202479 0.14170466 -0.049365003 0.060112514 -0.12502094 0.15542285 -0.11543226 -0.12588714 0.16978858 -0.14941531 0.06409862 -0.14856519 -0.098546885 -0.09795771 0.13112439 0.10297348
case 0.044068765 0.0046334127 0.04614723 -0.006530749 0.03306111 0.03341576 -0.004436708 0.025202189 -0.0154193975 -0.04206285 0.018448336 -0.013457273 -0.025738955 0.0071629807 -0.031000236 0.017111495
lines 0.17302379 0.17087951 -0.0951879 0.10912813 -0.11775508 0.153311 -0.08599851 -0.11320479 0.16066222 -0.1600012 0.15574336 -0.17460573 -0.13448662 -0.121995255 0.16630852 0.118352756
couldnt 0.31624424 0.25787455 -0.2704642 0.31415114 -0.29333282 0.2813637 -0.2562181 -0.31361628 0.3012403 -0.3134962 0.28283927 -0.25301453 -0.29896584 -0.29652938 0.2705323 0.26629156
finally -0.15672942 -0.1322955 0.2257431 -0.18321188 0.14701812 -0.19092241 0.16440447 0.15466645 -0.15446948 0.17004433 -0.15752883 0.11689901 0.14231335 0.20758674 -0.1829872 -0.1976276
person 0.036423326 -0.006881275 0.025924053 -0.052680526 0.06265562 -0.034283675 0.0053061154 0.057519183 0.017732373 0.035258926 -0.03647854 -0.02883616 -0.0058627794 0.05967208 -0.0015724234 -0.053536024
felt 0.001367677 0.050630696 -0.061148133 0.027336687 -0.044148836 0.07632527 0.012733028 -0.038463484 0.010008009 -0.044618163 0.06781291 -0.042012192 -0.057837564 -0.05259327 0.030049115 0.077796906
lost -0.07867368 -0.07068417 0.10830063 -0.120910875 0.1371379 -0.014863482 0.13424407 0.13796003 -0.039737973 0.06882712 -0.05237215 -0.008947534 0.017310254 0.13566993 -0.11074353 -0.08007397
waste 0.30630302 0.33513948 -0.37304443 0.31618157 -0.3494678 0.37209877 -0.3141795 -0.33695176 0.37957937 -0.39196554 0.36079687 -0.33534262 -0.36541227 -0.3940952 0.34347716 0.43716618
absolutely 0.13601446 0.1378997 -0.050451584 0.08129208 -0.13448982 0.13781795 -0.056770083 -0.10936223 0.13825624 -0.056387294 0.07805742 -0.15915334 -0.060930222 -0.095860384 0.09157152 0.079830214
title 0.15170173 0.09729656 -0.13016501 0.15196066 -0.15321665 0.11335684 -0.060276248 -0.10347909 0.15073445 -0.070865825 0.13248627 -0.16771528 -0.1512631 -0.07080621 0.07738531 0.15795816
piece 0.25274017 0.23532675 -0.24414527 0.18779759 -0.16927284 0.20142257 -0.21158695 -0.1832158 0.24921405 -0.20918871 0.18586151 -0.21748473 -0.19478618 -0.198691 0.25117794 0.22429529
supposed 0.25654826 0.36666888 -0.32387203 0.3653487 -0.3640814 0.3565892 -0.29404435 -0.3406823 0.37299043 -0.3802574 0.28960398 -0.33872345 -0.34417105 -0.37249938 0.36926198 0.31372324
school -0.07387653 -0.007083122 0.09698075 -0.09804386 0.045642026 -0.016268583 0.06922668 0.0874572 0.0061179646 0.027574519 -0.0770959 0.044239003 0.0713599 0.0905111 -0.08910501 -0.079158306
liked -0.25573194 -0.30437556 0.2575797 -0.32230595 0.28606844 -0.2711129 0.24996413 0.30920884 -0.26213583 0.27229586 -0.24477518 0.28371537 0.32189137 0.31291974 -0.2841121 -0.33304462
top -0.23465078 -0.20539443 0.27292907 -0.24742262 0.18181336 -0.1703367 0.19270886 0.27574506 -0.16579637 0.2765653 -0.17941971 0.16951509 0.2564999 0.2433745 -0.24827722 -0.22096595
budget 0.12176149 0.092024624 -0.11840274 0.04277717 -0.06575926 0.0105474135 -0.090850934 -0.118324585 0.081800416 -0.10420089 0.09026324 -0.11846035 -0.09593849 -0.06165643 0.10053001 0.12416708
entire 0.17236619 0.20570257 -0.18004577 0.13415448 -0.1697644 0.1620078 -0.18990682 -0.17753531 0.15813349 -0.23707548 0.21123564 -0.16012625 -0.14660881 -0.22649556 0.19872126 0.20095672
written 0.099392064 0.09128819 -0.056774862 0.027091784 -0.011620445 0.033418152 -0.018707965 -0.028999222 0.121811844 -0.08932984 0.019579854 -0.13851602 -0.02586861 0.051487904 0.07255419 0.038871616
live -0.09302163 -0.14088623 0.18808831 -0.11146695 0.13804448 -0.07865804 0.12692493 0.14331912 -0.110283665 0.18536401 -0.15875326 0.1047377 0.18392986 0.19055504 -0.12749262 -0.20104729
yes -0.17253137 -0.16408896 0.18927084 -0.14460595 0.12072047 -0.11919148 0.11737361 0.17978346 -0.123596884 0.18459672 -0.10837116 0.16527107 0.17544211 0.13253224 -0.11846135 -0.12327724
worse 0.35117885 0.36602056 -0.30966392 0.31392562 -0.31125075 0.34451982 -0.2946725 -0.35198236 0.33820018 -0.34672746 0.30255243 -0.30949214 -0.34935582 -0.3676047 0.40547815 0.36932194
hope -0.03147319 -0.10224449 0.10571526 -0.12930715 0.15582311 -0.09374965 0.1606007 0.12949434 -0.10136437 0.13388038 -0.05593981 0.088829465 0.09309958 0.1868592 -0.04564192 -0.08026412
against -0.14577685 -0.15743324 0.12267225 -0.11525181 0.084318586 -0.12764214 0.16457103 0.1145629 -0.07575689 0.1098104 -0.06308653 0.055454325 0.13205108 0.14309828 -0.08814096 -0.108605735
entertaining -0.24812771 -0.1906893 0.25057968 -0.17857607 0.18285945 -0.18825905 0.18948893 0.2176237 -0.16275176 0.19658771 -0.20452392 0.2290337 0.1979703 0.24191335 -0.22565515 -0.24561407
sort 0.19671549 0.18988854 -0.18640102 0.16524465 -0.19724318 0.17691402 -0.13461348 -0.15970547 0.21388786 -0.16935638 0.15831268 -0.17636076 -0.16519284 -0.17522708 0.19267297 0.15660955
went 0.11884381 0.102979265 -0.12272266 0.094491646 -0.13696057 0.14211528 -0.11985286 -0.12467258 0.15179105 -0.06305472 0.07869507 -0.1560979 -0.1478302 -0.10185006 0.13930987 0.070407934
shes 0.0056556542 0.071312785 -0.05880266 0.0066569126 -0.06263409 0.019793725 -0.054841638 -0.028431172 0.014408451 -0.069864176 0.05368949 -0.07545047 -0.08726282 -0.007379891 0.034553163 0.062298894
head 0.15828373 0.16010156 -0.17422076 0.08166116 -0.08216067 0.107028335 -0.07615533 -0.10552476 0.16477793 -0.11270921 0.15079205 -0.17609233 -0.11858148 -0.11352146 0.1730544 0.17436808
problem 0.3436216 0.28866717 -0.28750938 0.27837074 -0.29306552 0.31036094 -0.2907655 -0.300809 0.37058237 -0.31790668 0.33552915 -0.34782976 -0.35237187 -0.3325203 0.32832336 0.34427407
picture 0.0588796 0.009748911 -0.047839075 -0.015292161 0.00059893366 0.05752371 -0.03790515 0.011545414 0.09483302 0.011304431 0.029476838 -0.09416091 0.0014819636 0.01741263 0.07096386 -0.022059122
overall -0.1375447 -0.13261664 0.17820059 -0.20680629 0.17460656 -0.17871457 0.17927057 0.16606365 -0.21639554 0.19307297 -0.23048659 0.16524889 0.21940367 0.25830775 -0.2104321 -0.15983322
certainly -0.048997432 -0.092087395 0.15784639 -0.07749912 0.06897129 -0.07885577 0.10828109 0.1477725 -0.12706135 0.103636004 -0.04865416 0.033290654 0.07542291 0.14503895 -0.13744676 -0.10413055
style 4.9930502e-05 0.0060616857 0.019666284 -0.05346386 0.07812739 0.035123445 0.08031272 0.003976857 0.035739005 -0.019701563 0.010908091 0.012330865 0.05189587 0.08272685 0.03310255 -0.04948062
cinema -0.12774405 -0.131612 0.16921139 -0.1739895 0.17103969 -0.08036909 0.19425239 0.15090042 -0.08528409 0.16408783 -0.16817106 0.06759131 0.18423446 0.16639087 -0.12672015 -0.11044786
beginning 0.053029794 0.051663544 0.007238303 0.01964217 -0.030405873 0.02199664 0.015548982 -0.021054473 0.07939124 0.02342999 0.0048325243 -0.06305011 -0.036097627 -0.022025954 0.012297757 0.061079267
boy -0.05707332 -0.032878198 0.0690512 -0.08120478 0.12866245 -0.056855608 0.13631827 0.07971327 -0.013678096 0.119198754 -0.055908673 0.037665226 0.032090724 0.078692555 -0.08972059 -0.07000682
evil 0.11199447 0.1495315 -0.036973 0.05052841 -0.113674894 0.13380599 -0.057462912 -0.07531921 0.12865372 -0.058953498 0.08447792 -0.15695965 -0.14033055 -0.073580794 0.06512391 0.041682858
care 0.15924264 0.14519459 -0.15607044 0.13043995 -0.14127365 0.14499368 -0.19928172 -0.19230506 0.17588827 -0.21939696 0.1287317 -0.19025391 -0.13049635 -0.14513645 0.16345946 0.14129485
fans -0.17449391 -0.13195457 0.18893816 -0.130027 0.116781786 -0.12496336 0.13919371 0.16708435 -0.109889 0.1076769 -0.15924089 0.14180411 0.17403634 0.21540152 -0.119652204 -0.18374687
several -0.21575303 -0.18665361 0.22322623 -0.2320574 0.2492097 -0.23705687 0.19841027 0.27130097 -0.20062637 0.19283323 -0.2132073 0.22333364 0.24131018 0.24249268 -0.20496103 -0.2287758
white 0.00968817 -0.022122748 0.018872416 -0.009841067 -0.029431107 0.044305187 -0.00088191434 0.033655632 0.059791867 0.023434859 0.032824807 -0.0706762 -0.03711403 0.047894422 0.032184146 0.041142527
lives -0.20420493 -0.27120575 0.26978287 -0.23996349 0.29609597 -0.27751282 0.25220355 0.2916258 -0.2196244 0.30984187 -0.21940555 0.2489155 0.2597666 0.23981231 -0.28509685 -0.31270292
based -0.002727387 0.014360967 0.073505394 0.0070795347 0.026373591 0.0043552043 0.02392164 0.02000326 0.04982481 0.023534369 -0.024226071 -0.014778719 0.040987566 0.05821268 -0.044987246 -0.008709626
mother 0.07533985 0.08702596 -0.06754069 0.13794 -0.1552742 0.1347163 -0.08768846 -0.13124822 0.12982081 -0.08291885 0.14758602 -0.13534172 -0.10027278 -0.11607355 0.11653518 0.17047927
example 0.12737727 0.13111296 -0.108604334 0.13047728 -0.11802692 0.079104364 -0.065488435 -0.06701142 0.063669495 -0.083922915 0.135746 -0.16357177 -0.070780925 -0.1146096 0.09456246 0.042223487
loved -0.28007403 -0.31797957 0.37017998 -0.36943835 0.35103258 -0.3302838 0.30216327 0.32771257 -0.29271272 0.30669934 -0.34330764 0.30756018 0.38259253 0.40346178 -0.3969232 -0.40013582
dark -0.2456514 -0.24703097 0.2287198 -0.21086748 0.2608248 -0.21304667 0.19483304 0.24278529 -0.1702096 0.20217064 -0.21272789 0.16212726 0.2167873 0.26661593 -0.2508347 -0.20157261
direction 0.2535935 0.19402066 -0.20564294 0.21743247 -0.20296893 0.25302544 -0.25461802 -0.22310904 0.27196485 -0.23420915 0.20406872 -0.2574254 -0.20027414 -0.26994285 0.2496428 0.18396306
oh 0.3057842 0.3425914 -0.3517208 0.2955315 -0.35334402 0.35333976 -0.29266316 -0.25851056 0.33432215 -0.31442586 0.34123966 -0.34874645 -0.29878327 -0.33398408 0.30075336 0.3340241
id 0.08182248 0.03799045 -0.062064786 0.061738767 -0.04452961 0.023660244 -0.009438643 -0.0049466966 0.07790773 -0.088985674 0.10358908 -0.07750923 -0.06637625 -0.08638975 0.07484267 0.10137183
already 0.05481804 0.10327135 -0.05445804 0.07122625 -0.08198723 0.098070875 -0.034473605 -0.05590168 0.13441494 -0.094074756 0.047628853 -0.1480083 -0.084965296 -0.0885945 0.13160132 0.04238258
3 0.23578684 0.23874687 -0.16028044 0.24421228 -0.23212029 0.24696252 -0.231551 -0.21842459 0.19663566 -0.18180393 0.16366063 -0.22085594 -0.21651992 -0.17392537 0.21720979 0.203178
seemed 0.17901468 0.1627925 -0.23757915 0.20552915 -0.19293623 0.1645847 -0.15172487 -0.1383575 0.18819886 -0.2404623 0.21699284 -0.24871008 -0.2191976 -0.15754943 0.2166237 0.20698923
mr 0.02350587 0.001743201 0.011060685 0.015772764 0.011444914 0.034993634 0.034566265 -0.029942364 0.046700284 0.009371794 -0.015956493 -0.028801735 -0.04141378 -0.007712018 0.018837586 -0.032932684
wanted 0.19746192 0.16905642 -0.13179575 0.1289819 -0.13857894 0.18219405 -0.13105446 -0.16683209 0.19865386 -0.18607326 0.17319326 -0.15882331 -0.22823589 -0.18486615 0.17887656 0.17499943
becomes 0.09525076 0.088609174 -0.013233973 0.0158809 -0.0046824706 0.05315597 -0.062354065 -0.04401093 0.06783411 -0.08480054 0.043717705 -0.086681694 -0.09100931 -0.07777756 0.05935743 0.07585644
children 0.014721323 0.018447882 0.019846005 0.040735677 0.019167636 0.014712852 0.042239644 -0.0075046746 0.017499192 -0.0091469055 -0.009122825 -0.021231994 -0.08643395 -0.017517181 0.07976655 0.005508521
throughout -0.11968247 -0.086476736 0.16032161 -0.14288348 0.14205177 -0.105904385 0.1472099 0.15798138 -0.1375888 0.18646249 -0.099485666 0.075301185 0.1473595 0.18000782 -0.12992595 -0.1909474
turn 0.23353045 0.17226504 -0.19857909 0.21917921 -0.19541429 0.2527436 -0.2314527 -0.18700743 0.26751596 -0.20253147 0.21694279 -0.1818258 -0.24512738 -0.24194272 0.17088129 0.19820651
unfortunately 0.32194975 0.3757027 -0.40764213 0.3286981 -0.34757325 0.34165812 -0.299381 -0.35732898 0.32731965 -0.4135776 0.38252863 -0.32367292 -0.39493954 -0.4346698 0.35325855 0.40192667
guys 0.099811025 0.14215986 -0.0943409 0.08166262 -0.067804284 0.0692751 -0.14322758 -0.14318155 0.09137969 -0.15412144 0.12362703 -0.13492316 -0.15609002 -0.121043794 0.07807454 0.12275812
despite -0.016994165 0.020713896 0.031920273 -0.08598351 0.0016360465 -0.031582516 0.076687 0.021575766 0.010453475 0.009793947 -0.053313386 0.037835393 -0.027110219 0.0021077143 -0.038278837 -0.022804556
amazing -0.349925 -0.3726872 0.40919945 -0.39701462 0.31164548 -0.34301051 0.3906114 0.39946395 -0.32743916 0.39209518 -0.32473817 0.36836904 0.41178763 0.40333414 -0.34260184 -0.42675346
wont 0.040425424 0.036816545 0.039263733 -0.061018713 -0.03016614 0.037204772 -0.034450702 -0.019550616 -0.033628784 0.020364791 0.041660666 -0.048194584 -0.021871755 0.047936894 -0.034555085 0.03659971
final -0.112842 -0.09242631 0.12439188 -0.08528516 0.09391619 -0.08973437 0.056797072 0.11224357 -0.062235195 0.089902185 -0.053385872 0.030099146 0.031137913 0.11420538 -0.104904875 -0.108103104
killer 0.2194 0.16589533 -0.1859667 0.17854117 -0.21918647 0.21032397 -0.16658586 -0.2019506 0.1868631 -0.24372004 0.17141773 -0.16554311 -0.2261644 -0.22545251 0.25741923 0.25217474
fine -0.18370411 -0.17181659 0.19892003 -0.20401411 0.23499677 -0.17103778 0.2706889 0.23819625 -0.17809753 0.19660787 -0.17867666 0.19402453 0.22889027 0.3135182 -0.2616317 -0.25919813
history -0.15929808 -0.13316447 0.15985487 -0.13929346 0.17619272 -0.07779956 0.17722419 0.16811316 -0.09521059 0.16052236 -0.11380069 0.07084537 0.1564722 0.13510662 -0.16501994 -0.14569524
friend 0.0063626976 0.066171296 -0.024070486 -0.018031562 -0.009254061 0.07245912 0.03690591 0.024372116 0.0935189 -0.063243166 0.06063937 -0.072807156 -0.07162281 0.0073320935 0.06593131 -0.032311205
guess 0.24910998 0.25577265 -0.24069162 0.24870953 -0.26462686 0.25975198 -0.19381388 -0.29919726 0.31079957 -0.2481376 0.2787213 -0.2102114 -0.30093437 -0.2667327 0.26558444 0.22453463
totally 0.12051249 0.109170385 -0.09601418 0.1493439 -0.15899232 0.10833191 -0.15040147 -0.09765789 0.12482992 -0.19249609 0.13601094 -0.2136841 -0.15976265 -0.11551097 0.20111772 0.10072505
laugh 0.015293547 0.057552613 -0.032424416 0.029945921 -0.017123993 0.03435234 -0.058554053 -0.061100535 0.027099472 -0.015927302 0.06150599 -0.034161292 -0.06299525 0.020788968 -0.0074188933 0.02024149
1 0.21818882 0.25783238 -0.22119613 0.23850419 -0.29306874 0.21858892 -0.22778432 -0.20578505 0.27378482 -0.2735585 0.22169542 -0.26750317 -0.2720379 -0.2738209 0.24485546 0.311788
humor -0.18518081 -0.17157719 0.24008738 -0.26001525 0.21214989 -0.13348769 0.26755062 0.2416511 -0.18582155 0.26326227 -0.22469983 0.12920468 0.22963536 0.25179172 -0.25320145 -0.22406426
wants 0.002901283 0.10145116 -0.04604995 0.03077798 -0.0015525989 0.04800952 -0.06311299 -0.04538869 0.03211814 -0.090513945 0.0559666 -0.06982822 -0.08996835 -0.005386816 0.03822555 0.047218435
days -0.06296928 -0.051831827 0.060531393 -0.014486913 0.09722671 -0.013918261 0.08059247 0.099747494 -0.071226336 0.044695787 -0.06413635 0.03735664 0.061372653 0.12736915 -0.09762863 -0.024957158
sound 0.14351152 0.1510743 -0.1299864 0.13901666 -0.10403025 0.10952454 -0.15542695 -0.1647334 0.1476699 -0.11615692 0.12378414 -0.17662889 -0.12875581 -0.15738675 0.11008491 0.13350937
girls 0.072796345 0.0016593394 -0.011377914 0.046821732 -0.056238566 0.07405684 -0.04946989 0.00012563512 0.081400305 -0.042088956 -0.007610275 -0.046210784 -0.041586503 -0.0036752056 0.05860504 0.01897241
drama -0.08564959 -0.11356255 0.094878726 -0.1351756 0.13328573 -0.05602349 0.13840385 0.09212318 -0.106411204 0.11246475 -0.098334804 0.051273815 0.053850584 0.15683757 -0.1256694 -0.11087431
behind -0.018871821 0.020461166 0.072351426 -0.0065546655 0.051203746 0.025885534 0.032693703 0.058457766 -0.0016576216 0.04079638 0.005284286 -0.015026613 0.065040745 0.037945975 -0.03862618 -0.022415431
low 0.18038107 0.24157894 -0.2044778 0.1797086 -0.16824761 0.25512254 -0.21075958 -0.24119875 0.19987425 -0.24968386 0.21376027 -0.20973746 -0.21313831 -0.18179555 0.2403313 0.20691068
works -0.25026834 -0.23900007 0.27836847 -0.26359087 0.22546817 -0.3077598 0.28964996 0.28792822 -0.21407096 0.25727174 -0.28613895 0.25264016 0.28587627 0.24668492 -0.29726142 -0.3288508
youll -0.120615445 -0.12785032 0.10845174 -0.1437695 0.14282057 -0.100229345 0.052220285 0.10957961 -0.10542853 0.119947866 -0.11930773 0.049004026 0.12736632 0.08999222 -0.07040965 -0.12748434
michael -0.14579077 -0.11989032 0.18186542 -0.17808509 0.20932342 -0.14647165 0.2235209 0.12998733 -0.11137981 0.2076946 -0.21208073 0.16644542 0.20712145 0.23791456 -0.1882313 -0.20646323
 0.09425578 0.09078395 -0.08342517 0.0620708 -0.040665455 0.08946058 -0.08980628 -0.109866604 0.13775422 -0.081508785 0.053940993 -0.061089396 -0.053150382 -0.051418502 0.12501705 0.081330396
lead 0.14523534 0.17477864 -0.17665353 0.17777771 -0.17651425 0.14919923 -0.1864259 -0.15912715 0.20038414 -0.16728906 0.19982792 -0.2132979 -0.21580794 -0.18661839 0.15635313 0.13986573
turns 0.060817815 -0.027848631 -0.025004342 0.017826727 0.05259349 0.028257817 0.041335613 -0.039060213 0.03464877 -0.03442786 0.028298477 -0.0023341998 0.0124653075 0.038134515 0.008327331 -0.014519329
called 0.069085725 0.0069120713 -0.052030247 -0.017589709 -0.016753487 0.00988745 0.0015581222 -0.0013981216 0.06795112 -0.05825115 0.08469166 -0.095000274 -0.025878055 0.015046231 0.06447816 0.0076615866
son -0.029952487 0.0011556541 0.038012564 -0.027209181 -0.02146779 0.07652593 0.022843502 0.029244857 0.010410695 0.022188623 -0.009444041 -0.09314827 -0.07239066 0.06375613 0.017133117 -0.011433313
quality 0.13008124 0.18082058 -0.16918302 0.19498664 -0.15623735 0.18871342 -0.12518322 -0.13804556 0.15196843 -0.1442519 0.11228225 -0.14686269 -0.14690769 -0.10114147 0.1314722 0.10947012
past -0.075767286 -0.15062739 0.119652756 -0.069331005 0.10188663 -0.06404215 0.080908224 0.14450474 -0.06581339 0.1594725 -0.06365629 0.04055232 0.10646033 0.08874668 -0.14895931 -0.07803618
game -0.13834365 -0.10976818 0.12561165 -0.1348608 0.07213051 -0.10154925 0.15792125 0.15197654 -0.10261287 0.10463612 -0.14289236 0.10279933 0.089247175 0.14429261 -0.07711155 -0.16413835
able -0.26352373 -0.22757855 0.2324367 -0.2824726 0.20466651 -0.20584017 0.23099297 0.20526317 -0.2147199 0.27115393 -0.26368842 0.17856544 0.20160042 0.22279125 -0.24101968 -0.2663981
tries 0.21646531 0.26298052 -0.2398585 0.28221253 -0.29869404 0.25819585 -0.22655316 -0.20747763 0.2600123 -0.30002883 0.25540167 -0.3105706 -0.28543314 -0.3146171 0.27296045 0.2526056
gave 0.09334043 0.041708663 -0.06163915 0.0127635645 -0.059523255 0.10120565 0.014753866 -0.03915479 0.095882855 -0.047211684 0.03318856 -0.08884415 -0.054700077 0.0115238195 0.010750778 0.06945486
writing 0.14219116 0.22284353 -0.21346466 0.19624797 -0.16699252 0.23577136 -0.13640882 -0.1396998 0.21705706 -0.1525276 0.18879142 -0.21738957 -0.23000002 -0.1819721 0.15291351 0.2055085
act 0.17401148 0.20844449 -0.23006736 0.20465957 -0.25061792 0.18916677 -0.18987691 -0.2060471 0.24663965 -0.24435505 0.16946141 -0.2165416 -0.22277464 -0.19832739 0.229734 0.22696911
under 0.07671402 0.025783677 -0.035612877 0.065568626 -0.05121188 0.043922316 -0.047728173 -0.010077615 0.09311803 -0.042270936 0.041572448 -0.08207773 -0.016733347 -0.02344431 0.058373757 -0.00015543228
theyre 0.17445368 0.19409911 -0.1820022 0.20117192 -0.12407384 0.117951736 -0.111102045 -0.1600963 0.19815831 -0.14879781 0.20326132 -0.15138523 -0.14903753 -0.12278377 0.13256367 0.19262144
favorite -0.31839654 -0.3231883 0.28681794 -0.3467611 0.30387142 -0.30469638 0.29818538 0.2768593 -0.31439 0.30999035 -0.31492284 0.32398424 0.32523364 0.33083406 -0.32987943 -0.3261164
starts 0.18713853 0.25107858 -0.16516982 0.23355883 -0.21238643 0.19753905 -0.24620014 -0.15981942 0.19436765 -0.2571543 0.19597638 -0.23092328 -0.2223061 -0.2246629 0.25298405 0.18103942
enjoyed -0.28199214 -0.31726995 0.29843935 -0.34579504 0.33214602 -0.28618985 0.36392164 0.35456392 -0.37660187 0.3411772 -0.32156914 0.30741277 0.33587563 0.30234835 -0.3638669 -0.34407982
genre -0.115701124 -0.13746192 0.14286266 -0.17100908 0.13733827 -0.16733634 0.13976707 0.19143254 -0.14618371 0.20544843 -0.12569489 0.15618362 0.13287652 0.21405612 -0.20861535 -0.14346762
side -0.049278807 -0.062475484 0.12510833 -0.03279211 0.057263516 -0.021358822 0.0742339 0.09125305 -0.066299304 0.07483897 -0.074155875 0.016886055 0.03001524 0.11976175 -0.06797613 -0.12116717
horrible 0.28566268 0.37027138 -0.35462758 0.34050417 -0.302674 0.33936536 -0.32281962 -0.3091002 0.34755275 -0.32897484 0.3061836 -0.34763312 -0.3408938 -0.42822412 0.3451865 0.39460996
brilliant -0.26372874 -0.28944322 0.3112229 -0.28262132 0.33034024 -0.31211865 0.269736 0.28895223 -0.33740544 0.33144748 -0.33062375 0.27063438 0.28777286 0.2977018 -0.31687337 -0.28422475
expect -0.08759405 -0.061001033 0.0141678415 -0.06710177 0.084060214 -0.12462816 0.059025545 0.019149175 -0.071123324 0.08649778 -0.0054796063 0.06101779 0.084338844 0.1048025 -0.015451624 -0.08694643
viewer -0.13285269 -0.14319316 0.19510931 -0.18721087 0.11268795 -0.14292294 0.1522411 0.16282465 -0.108929045 0.19783866 -0.1731482 0.15693986 0.14195196 0.22226617 -0.12856573 -0.18218854
town -0.1107668 -0.09220879 0.07660297 -0.11199315 0.1395009 -0.017819295 0.066308536 0.11146426 -0.038619336 0.0738102 -0.052715424 0.10120898 0.12721016 0.09227281 -0.13223733 -0.14493635
flick 0.20708378 0.13983527 -0.17329708 0.20807514 -0.20006572 0.18183161 -0.10606117 -0.21029377 0.22979222 -0.1929214 0.17147836 -0.1514793 -0.13509758 -0.18192431 0.16005933 0.17232935
eyes -0.030946253 -0.07866588 0.0097315665 -0.006613941 0.043972272 -0.021004789 0.044185456 0.08814761 -0.031173032 0.06596494 -0.06677093 -0.010565924 0.024489675 0.022017 -0.008346493 -0.020860035
kill 0.15320216 0.090501055 -0.09438539 0.15499179 -0.10111158 0.13583153 -0.090713136 -0.12389055 0.0932817 -0.14869627 0.088796094 -0.16520804 -0.16715741 -0.070244305 0.054338433 0.13472699
themselves -0.061350755 -0.06510633 0.036596004 -0.09711475 0.0630952 0.005592068 0.015641881 0.01955304 0.012660889 0.013717086 -0.09225021 -0.0063803154 0.07820666 0.02884523 -0.08522984 -0.040058818
stories -0.09527495 -0.044216134 0.078690164 -0.08148624 0.06289804 -0.031041654 0.089188285 0.057953287 -0.036314055 0.114983365 -0.035711452 0.005926134 0.053138964 0.09062353 -0.06156686 -0.032807667
ones -0.07805205 -0.08733556 0.07732615 -0.1071151 0.14718966 -0.07036911 0.07639731 0.12192113 -0.100312985 0.0863315 -0.09849583 0.03318036 0.10233644 0.10149077 -0.102820784 -0.08453422
actress 0.09324576 0.17576478 -0.11880505 0.16488731 -0.08945353 0.14400461 -0.08676364 -0.14861335 0.15667108 -0.1764441 0.13847926 -0.2007655 -0.15865289 -0.12848228 0.15888767 0.17855963
sometimes -0.21620546 -0.19276553 0.1984301 -0.22719991 0.25372228 -0.16455472 0.2367424 0.16783965 -0.2305586 0.21424603 -0.17615111 0.22508144 0.22248408 0.25664312 -0.18279044 -0.22325028
parts -0.06578387 -0.09064046 0.12560737 -0.13503516 0.08800016 -0.15632261 0.14056194 0.103130504 -0.0677652 0.12041459 -0.10343502 0.1241507 0.11226842 0.10471082 -0.16334152 -0.14296114
soon -0.095482066 -0.15007512 0.1709546 -0.0897799 0.12948705 -0.11838159 0.10326615 0.12788111 -0.11201393 0.15691087 -0.11086737 0.09419245 0.13138412 0.14778684 -0.13895833 -0.107495755
thinking 0.26037157 0.18874271 -0.24224858 0.24013096 -0.17859253 0.22266845 -0.22902505 -0.21125992 0.23723818 -0.27608624 0.25705376 -0.21094179 -0.24105664 -0.2602593 0.24712685 0.20579873
